{"learner":{"attributes":{"scikit_learn":"{\"_estimator_type\": \"regressor\"}"},"feature_names":[],"feature_types":[],"gradient_booster":{"model":{"gbtree_model_param":{"num_parallel_tree":"1","num_trees":"300"},"iteration_indptr":[0,1,2,3,4,5,6,7,8,9,10,11,12,13,14,15,16,17,18,19,20,21,22,23,24,25,26,27,28,29,30,31,32,33,34,35,36,37,38,39,40,41,42,43,44,45,46,47,48,49,50,51,52,53,54,55,56,57,58,59,60,61,62,63,64,65,66,67,68,69,70,71,72,73,74,75,76,77,78,79,80,81,82,83,84,85,86,87,88,89,90,91,92,93,94,95,96,97,98,99,100,101,102,103,104,105,106,107,108,109,110,111,112,113,114,115,116,117,118,119,120,121,122,123,124,125,126,127,128,129,130,131,132,133,134,135,136,137,138,139,140,141,142,143,144,145,146,147,148,149,150,151,152,153,154,155,156,157,158,159,160,161,162,163,164,165,166,167,168,169,170,171,172,173,174,175,176,177,178,179,180,181,182,183,184,185,186,187,188,189,190,191,192,193,194,195,196,197,198,199,200,201,202,203,204,205,206,207,208,209,210,211,212,213,214,215,216,217,218,219,220,221,222,223,224,225,226,227,228,229,230,231,232,233,234,235,236,237,238,239,240,241,242,243,244,245,246,247,248,249,250,251,252,253,254,255,256,257,258,259,260,261,262,263,264,265,266,267,268,269,270,271,272,273,274,275,276,277,278,279,280,281,282,283,284,285,286,287,288,289,290,291,292,293,294,295,296,297,298,299,300],"tree_info":[0,0,0,0,0,0,0,0,0,0,0,0,0,0,0,0,0,0,0,0,0,0,0,0,0,0,0,0,0,0,0,0,0,0,0,0,0,0,0,0,0,0,0,0,0,0,0,0,0,0,0,0,0,0,0,0,0,0,0,0,0,0,0,0,0,0,0,0,0,0,0,0,0,0,0,0,0,0,0,0,0,0,0,0,0,0,0,0,0,0,0,0,0,0,0,0,0,0,0,0,0,0,0,0,0,0,0,0,0,0,0,0,0,0,0,0,0,0,0,0,0,0,0,0,0,0,0,0,0,0,0,0,0,0,0,0,0,0,0,0,0,0,0,0,0,0,0,0,0,0,0,0,0,0,0,0,0,0,0,0,0,0,0,0,0,0,0,0,0,0,0,0,0,0,0,0,0,0,0,0,0,0,0,0,0,0,0,0,0,0,0,0,0,0,0,0,0,0,0,0,0,0,0,0,0,0,0,0,0,0,0,0,0,0,0,0,0,0,0,0,0,0,0,0,0,0,0,0,0,0,0,0,0,0,0,0,0,0,0,0,0,0,0,0,0,0,0,0,0,0,0,0,0,0,0,0,0,0,0,0,0,0,0,0,0,0,0,0,0,0,0,0,0,0,0,0,0,0,0,0,0,0,0,0,0,0,0,0,0,0,0,0,0,0,0,0,0,0,0,0],"trees":[{"base_weights":[1.6699098E-2,1.5487077E1,-3.4418962E0,1.1418702E1,9.2556526E1,-8.8968315E0,2.0528355E0,2.4478918E-1,2.1534786E1,6.3139453E0,6.2902798E1,-1.1695756E1,-4.643819E0,-4.1280355E0,6.1867933E0,-5.9840627E0,5.4203305E0,8.943392E0,2.628633E1,2.1974814E0,3.3669364E0,-1.4712496E1,-5.7789717E0,-8.156307E0,-1.7105846E0,1.3609349E0,-6.8940253E0,1.3638395E1,2.421011E0,-8.544827E0,1.546423E0,-1.1278548E1,9.518727E0,1.5137666E1,2.935406E0,3.292617E1,1.9334803E1,-1.6435946E1,-1.2599233E1,-1.0852231E1,-1.5460012E0,-9.723358E0,-3.4293425E0,2.5487158E0,-3.7573738E0,-3.298708E0,5.0842314E0,-9.245471E0,-4.8860507E0,1.028954E1,2.9565208E1,-1.4708344E0,5.847894E0,-7.855708E-1,-3.464181E-1,-3.2504213E-1,3.475115E-1,-6.958826E-1,-4.3646923E-1,3.20207E-2,7.371823E-1,2.8078637E-1,9.636602E-1,-3.9261517E-1,2.1552217E-1,5.8391464E-1,1.7712542E0,7.155853E-1,1.2235744E0,-8.891436E-1,-7.496545E-1,-7.166843E-1,-5.434765E-1,-6.2399E-1,-4.195562E-1,1.0425637E-1,-1.6396974E-1,-5.517606E-1,-3.8667217E-1,-2.3382922E-1,-7.804602E-2,2.8229246E-1,-2.7309855E-2,-2.6668137E-1,4.6853706E-2,-3.2424098E-1,-4.836856E-3,-7.858011E-2,3.6335713E-1,-5.4453796E-1,-3.749429E-1,-1.4123116E-1,-3.3879384E-1,1.8607007E-1,7.9854816E-1,1.0350808E0,1.8047503E0,-2.047898E-1,5.5410583E-2,4.4073984E-1,1.4625458E-1],"categories":[],"categories_nodes":[],"categories_segments":[],"categories_sizes":[],"default_left":[0,0,0,0,0,0,0,0,0,0,0,0,0,0,0,0,0,0,0,0,0,0,0,0,0,0,0,0,0,0,0,0,0,0,0,0,0,0,0,0,0,0,0,0,0,0,0,0,0,0,0,0,0,0,0,0,0,0,0,0,0,0,0,0,0,0,0,0,0,0,0,0,0,0,0,0,0,0,0,0,0,0,0,0,0,0,0,0,0,0,0,0,0,0,0,0,0,0,0,0,0],"id":0,"left_children":[1,3,5,7,9,11,13,15,17,-1,19,21,23,25,27,29,31,33,35,-1,-1,37,39,41,43,45,47,49,51,53,55,57,59,61,63,65,67,69,71,73,75,77,79,81,83,85,87,89,91,93,95,97,99,-1,-1,-1,-1,-1,-1,-1,-1,-1,-1,-1,-1,-1,-1,-1,-1,-1,-1,-1,-1,-1,-1,-1,-1,-1,-1,-1,-1,-1,-1,-1,-1,-1,-1,-1,-1,-1,-1,-1,-1,-1,-1,-1,-1,-1,-1,-1,-1],"loss_changes":[9.1189875E5,9.7532975E5,4.1751775E5,3.3446897E5,1.4805575E5,8.315369E4,1.7735266E5,4.5390855E4,9.2678625E4,0E0,4.1868438E3,7.515019E4,2.8587035E4,4.2246918E4,1.16673125E5,1.2335566E4,5.2736664E4,1.5846422E4,5.1382375E4,0E0,0E0,9.9580625E3,3.058504E4,9.322203E3,1.3208461E4,1.6203603E4,8.689859E3,7.415364E4,3.6871797E4,5.4169727E3,7.1333794E3,9.0108984E2,2.8658629E4,8.161215E3,3.2675513E3,3.0116812E4,1.39183125E4,2.7145625E3,3.6183125E3,2.490914E3,4.9037056E3,2.3893906E3,7.2909863E2,4.7190796E3,7.57483E3,4.233135E3,7.5520215E3,2.363836E3,3.8765996E3,4.3040984E4,1.3259125E4,8.771556E3,1.272157E4,0E0,0E0,0E0,0E0,0E0,0E0,0E0,0E0,0E0,0E0,0E0,0E0,0E0,0E0,0E0,0E0,0E0,0E0,0E0,0E0,0E0,0E0,0E0,0E0,0E0,0E0,0E0,0E0,0E0,0E0,0E0,0E0,0E0,0E0,0E0,0E0,0E0,0E0,0E0,0E0,0E0,0E0,0E0,0E0,0E0,0E0,0E0,0E0],"parents":[2147483647,0,0,1,1,2,2,3,3,4,4,5,5,6,6,7,7,8,8,10,10,11,11,12,12,13,13,14,14,15,15,16,16,17,17,18,18,21,21,22,22,23,23,24,24,25,25,26,26,27,27,28,28,29,29,30,30,31,31,32,32,33,33,34,34,35,35,36,36,37,37,38,38,39,39,40,40,41,41,42,42,43,43,44,44,45,45,46,46,47,47,48,48,49,49,50,50,51,51,52,52],"right_children":[2,4,6,8,10,12,14,16,18,-1,20,22,24,26,28,30,32,34,36,-1,-1,38,40,42,44,46,48,50,52,54,56,58,60,62,64,66,68,70,72,74,76,78,80,82,84,86,88,90,92,94,96,98,100,-1,-1,-1,-1,-1,-1,-1,-1,-1,-1,-1,-1,-1,-1,-1,-1,-1,-1,-1,-1,-1,-1,-1,-1,-1,-1,-1,-1,-1,-1,-1,-1,-1,-1,-1,-1,-1,-1,-1,-1,-1,-1,-1,-1,-1,-1,-1,-1],"split_conditions":[2E-1,9.77E-2,1.2E2,7.5E1,1E-1,5.8E1,3.339E1,4.66E1,3E-1,6.3139453E0,2E-1,5.385E1,5E-1,5E-1,5E-1,9.33E-2,1.3E1,1E-1,1E-1,2.1974814E0,3.3669364E0,6E-1,5E-1,5.229E1,5E-1,5E-1,5E-1,8.74E-2,5E-1,2E-1,4E-1,5E-1,4E-1,1E-1,2.984E1,2.984E1,4.729E1,7.91E-2,7.91E-2,3E-1,5E-1,3E-1,3E-1,7.2E-2,5.229E1,2E0,2.984E1,2E0,8E-1,5E-1,5E-1,8E-2,8E-1,-7.855708E-1,-3.464181E-1,-3.2504213E-1,3.475115E-1,-6.958826E-1,-4.3646923E-1,3.20207E-2,7.371823E-1,2.8078637E-1,9.636602E-1,-3.9261517E-1,2.1552217E-1,5.8391464E-1,1.7712542E0,7.155853E-1,1.2235744E0,-8.891436E-1,-7.496545E-1,-7.166843E-1,-5.434765E-1,-6.2399E-1,-4.195562E-1,1.0425637E-1,-1.6396974E-1,-5.517606E-1,-3.8667217E-1,-2.3382922E-1,-7.804602E-2,2.8229246E-1,-2.7309855E-2,-2.6668137E-1,4.6853706E-2,-3.2424098E-1,-4.836856E-3,-7.858011E-2,3.6335713E-1,-5.4453796E-1,-3.749429E-1,-1.4123116E-1,-3.3879384E-1,1.8607007E-1,7.9854816E-1,1.0350808E0,1.8047503E0,-2.047898E-1,5.5410583E-2,4.4073984E-1,1.4625458E-1],"split_indices":[2,5,6,6,2,6,4,4,0,0,0,4,0,2,2,5,6,2,2,0,0,0,0,4,2,0,0,5,0,0,0,0,0,0,4,4,4,5,5,0,2,0,0,5,4,7,4,7,2,0,0,5,2,0,0,0,0,0,0,0,0,0,0,0,0,0,0,0,0,0,0,0,0,0,0,0,0,0,0,0,0,0,0,0,0,0,0,0,0,0,0,0,0,0,0,0,0,0,0,0,0],"split_type":[0,0,0,0,0,0,0,0,0,0,0,0,0,0,0,0,0,0,0,0,0,0,0,0,0,0,0,0,0,0,0,0,0,0,0,0,0,0,0,0,0,0,0,0,0,0,0,0,0,0,0,0,0,0,0,0,0,0,0,0,0,0,0,0,0,0,0,0,0,0,0,0,0,0,0,0,0,0,0,0,0,0,0,0,0,0,0,0,0,0,0,0,0,0,0,0,0,0,0,0,0],"sum_hessian":[1.7041E4,3.113E3,1.3928E4,2.958E3,1.55E2,6.989E3,6.939E3,1.406E3,1.552E3,7.1E1,8.4E1,4.214E3,2.775E3,2.781E3,4.158E3,6.38E2,7.68E2,4.26E2,1.126E3,1.8E1,6.6E1,2.79E3,1.424E3,1.262E3,1.513E3,9.32E2,1.849E3,1.395E3,2.763E3,4.76E2,1.62E2,1.51E2,6.17E2,2.09E2,2.17E2,5.74E2,5.52E2,1.533E3,1.257E3,6.47E2,7.77E2,9.47E2,3.15E2,4.91E2,1.022E3,4.14E2,5.18E2,8.5E2,9.99E2,1.154E3,2.41E2,1.294E3,1.469E3,8.6E1,3.9E2,6.5E1,9.7E1,7.2E1,7.9E1,2.29E2,3.88E2,6.4E1,1.45E2,2.4E1,1.93E2,6.1E1,5.13E2,2.81E2,2.71E2,7.87E2,7.46E2,6.24E2,6.33E2,3.87E2,2.6E2,2.51E2,5.26E2,5.68E2,3.79E2,1.88E2,1.27E2,2.45E2,2.46E2,7.65E2,2.57E2,2.07E2,2.07E2,1.28E2,3.9E2,4.35E2,4.15E2,4.79E2,5.2E2,5.36E2,6.18E2,1.04E2,1.37E2,6.41E2,6.53E2,7.28E2,7.41E2],"tree_param":{"num_deleted":"0","num_feature":"9","num_nodes":"101","size_leaf_vector":"1"}},{"base_weights":[8.2166545E-2,-6.6303663E0,6.889377E0,-1.361583E1,-3.5996764E0,4.4141397E0,2.929881E1,-1.5408752E1,-1.210013E1,-8.668615E0,-7.016326E-1,-1.4115944E0,7.2560143E0,2.3653025E1,3.2421806E1,-1.6458202E1,-1.3265753E1,-1.4360947E1,-1.0884723E1,-4.4921927E0,-1.0316092E1,-6.201548E0,1.5365635E0,-4.4459043E0,2.1200736E0,1.3431457E0,1.0592821E1,1.0653263E0,1.219632E0,1.4805082E0,1.7238797E0,-8.806896E-1,-7.875024E-1,-7.629476E-1,-6.336913E-1,-7.3246735E-1,-6.37991E-1,-1.2002145E1,-9.777405E0,-1.3860067E0,-7.3908525E0,-1.435309E1,-9.286528E0,-9.249421E0,-3.169901E0,2.8749686E-1,6.4822526E0,-7.8191967E0,-2.6040015E0,-1.9505533E0,4.062177E0,3.8943021E0,-1.2149489E0,8.701467E0,1.3123684E1,-6.220415E-1,-4.889666E-1,-5.642392E-1,-4.5528746E-1,-2.4356727E-1,-1.5437772E-2,-5.454096E-1,-3.0791497E-1,-7.973792E-1,-6.83536E-1,-6.275794E-1,-4.0860006E-1,-5.030637E-1,-3.5525605E-1,-2.251931E-1,-6.339221E-2,-9.422464E-2,1.5796117E-1,2.1160702E-1,4.0952975E-1,-5.441647E-1,-3.155222E-1,-2.8375328E-1,-5.5284876E-2,-1.5199426E-1,-6.0704734E-2,1.2828915E-1,2.8011042E-1,-2.1133075E-2,2.659752E-1,-1.9228481E-1,6.812049E-2,5.219404E-1,3.4474194E-1,7.4206495E-1,4.9105176E-1],"categories":[],"categories_nodes":[],"categories_segments":[],"categories_sizes":[],"default_left":[0,0,0,0,0,0,0,0,0,0,0,0,0,0,0,0,0,0,0,0,0,0,0,0,0,0,0,0,0,0,0,0,0,0,0,0,0,0,0,0,0,0,0,0,0,0,0,0,0,0,0,0,0,0,0,0,0,0,0,0,0,0,0,0,0,0,0,0,0,0,0,0,0,0,0,0,0,0,0,0,0,0,0,0,0,0,0,0,0,0,0],"id":1,"left_children":[1,3,5,7,9,11,13,15,17,19,21,23,25,27,29,31,33,35,37,39,41,43,45,47,49,51,53,-1,-1,-1,-1,-1,-1,-1,-1,-1,-1,55,57,59,61,63,65,67,69,71,73,75,77,79,81,83,85,87,89,-1,-1,-1,-1,-1,-1,-1,-1,-1,-1,-1,-1,-1,-1,-1,-1,-1,-1,-1,-1,-1,-1,-1,-1,-1,-1,-1,-1,-1,-1,-1,-1,-1,-1,-1,-1],"loss_changes":[7.8291456E5,1.8259122E5,4.717425E5,6.9063125E3,8.8398375E4,1.26862375E5,1.4149625E4,2.4624375E3,3.7428281E3,1.5015219E4,4.7156402E4,2.6939172E4,1.0159578E5,9.59375E0,2.1119375E3,3.7396875E2,2.750078E2,4.0734375E1,1.0296641E3,5.5811006E3,6.3880156E3,1.0208684E4,1.6819455E4,8.37999E3,9.194207E3,1.2136751E4,1.56438125E4,0E0,0E0,0E0,0E0,0E0,0E0,0E0,0E0,0E0,0E0,3.2396094E2,3.7410156E2,1.1286262E3,1.324457E3,1.2689453E2,4.4570938E3,8.8946875E2,1.4075493E3,1.3572211E4,2.07567E3,2.1364746E3,4.024541E3,2.9795447E2,1.7992627E3,5.7302676E3,6.3042114E3,5.8508125E3,7.8300156E3,0E0,0E0,0E0,0E0,0E0,0E0,0E0,0E0,0E0,0E0,0E0,0E0,0E0,0E0,0E0,0E0,0E0,0E0,0E0,0E0,0E0,0E0,0E0,0E0,0E0,0E0,0E0,0E0,0E0,0E0,0E0,0E0,0E0,0E0,0E0,0E0],"parents":[2147483647,0,0,1,1,2,2,3,3,4,4,5,5,6,6,7,7,8,8,9,9,10,10,11,11,12,12,13,13,14,14,15,15,16,16,17,17,18,18,19,19,20,20,21,21,22,22,23,23,24,24,25,25,26,26,37,37,38,38,39,39,40,40,41,41,42,42,43,43,44,44,45,45,46,46,47,47,48,48,49,49,50,50,51,51,52,52,53,53,54,54],"right_children":[2,4,6,8,10,12,14,16,18,20,22,24,26,28,30,32,34,36,38,40,42,44,46,48,50,52,54,-1,-1,-1,-1,-1,-1,-1,-1,-1,-1,56,58,60,62,64,66,68,70,72,74,76,78,80,82,84,86,88,90,-1,-1,-1,-1,-1,-1,-1,-1,-1,-1,-1,-1,-1,-1,-1,-1,-1,-1,-1,-1,-1,-1,-1,-1,-1,-1,-1,-1,-1,-1,-1,-1,-1,-1,-1,-1],"split_conditions":[1.2E2,2.336E4,9.71102E5,5E-1,4E-1,3.228E1,4E-1,2.0248E4,3.109E1,7.2E-2,4.457E1,6E-1,4E-1,1E-1,7E-1,2E-1,1E-1,1E0,1.5341E4,6.6456E4,3.117E1,4.8935E4,1E0,2.72212E5,2.72212E5,1.30782E5,8E-1,1.0653263E0,1.219632E0,1.4805082E0,1.7238797E0,-8.806896E-1,-7.875024E-1,-7.629476E-1,-6.336913E-1,-7.3246735E-1,-6.37991E-1,1E0,7E-1,1E-1,1E-1,1E-1,1E-1,9E-1,8E-1,8E-1,7E-1,2E-1,2E-1,8E-1,3.88608E5,1E-1,2E-1,1.30782E5,1.79987E5,-6.220415E-1,-4.889666E-1,-5.642392E-1,-4.5528746E-1,-2.4356727E-1,-1.5437772E-2,-5.454096E-1,-3.0791497E-1,-7.973792E-1,-6.83536E-1,-6.275794E-1,-4.0860006E-1,-5.030637E-1,-3.5525605E-1,-2.251931E-1,-6.339221E-2,-9.422464E-2,1.5796117E-1,2.1160702E-1,4.0952975E-1,-5.441647E-1,-3.155222E-1,-2.8375328E-1,-5.5284876E-2,-1.5199426E-1,-6.0704734E-2,1.2828915E-1,2.8011042E-1,-2.1133075E-2,2.659752E-1,-1.9228481E-1,6.812049E-2,5.219404E-1,3.4474194E-1,7.4206495E-1,4.9105176E-1],"split_indices":[6,3,3,0,0,4,0,3,4,5,4,0,0,0,0,0,0,0,3,3,4,3,7,3,3,3,0,0,0,0,0,0,0,0,0,0,0,0,0,0,0,0,0,0,0,0,0,0,0,0,3,0,0,3,3,0,0,0,0,0,0,0,0,0,0,0,0,0,0,0,0,0,0,0,0,0,0,0,0,0,0,0,0,0,0,0,0,0,0,0,0],"split_type":[0,0,0,0,0,0,0,0,0,0,0,0,0,0,0,0,0,0,0,0,0,0,0,0,0,0,0,0,0,0,0,0,0,0,0,0,0,0,0,0,0,0,0,0,0,0,0,0,0,0,0,0,0,0,0,0,0,0,0,0,0,0,0,0,0,0,0,0,0,0,0,0,0,0,0,0,0,0,0,0,0,0,0,0,0,0,0,0,0,0,0],"sum_hessian":[1.7132E4,8.626E3,8.506E3,2.609E3,6.017E3,7.661E3,8.45E2,1.191E3,1.418E3,2.188E3,3.829E3,2.512E3,5.149E3,3.04E2,5.41E2,7.95E2,3.96E2,4.92E2,9.26E2,6.2E2,1.568E3,1.107E3,2.722E3,1.351E3,1.161E3,1.858E3,3.291E3,8E1,2.24E2,2.35E2,3.06E2,2.93E2,5.02E2,8.5E1,3.11E2,4.1E2,8.2E1,4.56E2,4.7E2,3E2,3.2E2,3.16E2,1.252E3,5.51E2,5.56E2,2.174E3,5.48E2,4.76E2,8.75E2,3.75E2,7.86E2,9.3E2,9.28E2,1.886E3,1.405E3,3.77E2,7.9E1,1.4E2,3.3E2,7E1,2.3E2,8.1E1,2.39E2,8.8E1,2.28E2,3.16E2,9.36E2,3.97E2,1.54E2,3.26E2,2.3E2,1.238E3,9.36E2,2.38E2,3.1E2,1.55E2,3.21E2,2.86E2,5.89E2,1.5E2,2.25E2,4E2,3.86E2,2.31E2,6.99E2,4.59E2,4.69E2,9.59E2,9.27E2,9.22E2,4.83E2],"tree_param":{"num_deleted":"0","num_feature":"9","num_nodes":"91","size_leaf_vector":"1"}},{"base_weights":[5.799814E-3,-6.4212484E0,6.4821115E0,1.5218698E1,-8.618445E0,4.1180296E0,2.6972416E1,9.861409E0,3.463601E1,-1.4800687E1,-5.930909E0,-1.5125086E0,6.942492E0,2.3208345E1,1.5671023E0,-2.9800634E0,1.4612529E1,1.1032251E1,4.9882797E1,-8.974454E0,-1.5474536E1,-1.2825526E0,-7.9673915E0,-5.524336E0,7.8728384E-1,1.7313147E1,4.775126E0,1.7031574E1,2.8337524E1,7.384225E0,-7.4342895E0,2.2848274E1,9.471827E0,-4.2282858E-1,1.7694342E1,2.1435568E0,2.7611296E0,-1.1664259E1,-5.5979867E0,-1.626612E1,-1.3889633E1,-7.1870947E0,3.8103962E0,-1.0274908E1,-4.924634E0,-9.173524E0,-3.582234E0,-3.2009532E0,2.753056E0,4.4840574E0,2.2044258E1,8.096557E-1,8.061733E0,1.2760488E1,2.0816069E1,2.4351332E1,1.4566349E0,-2.2233105E-1,6.715216E-1,-6.41687E-1,-2.3545645E-1,9.824032E-1,1.4861658E0,1.3692075E-1,5.916591E-1,1.1274865E0,5.871375E-1,-6.458556E-1,-4.4218332E-1,-3.9113703E-1,-3.7289236E-2,-8.3939296E-1,-7.4146944E-1,-5.8451563E-1,-7.25522E-1,-1.4015296E-1,-4.3736434E-1,-1.1954323E-1,3.0721983E-1,-6.7110294E-1,-4.594887E-1,-3.4086022E-1,-1.2545098E-1,-5.8407426E-1,-4.146268E-1,-2.6105806E-1,-9.409969E-2,4.1596454E-2,-2.0949809E-1,5.5791855E-2,2.447036E-1,6.36888E-1,-1.9036636E-1,1.3656402E0,5.872197E-1,-7.3810495E-2,1.1808973E-1,5.887552E-1,2.5096354E-1,7.7695674E-1,3.2504934E-1,1.1196388E0,8.845952E-1,1.2749107E0,5.941157E-1],"categories":[],"categories_nodes":[],"categories_segments":[],"categories_sizes":[],"default_left":[0,0,0,0,0,0,0,0,0,0,0,0,0,0,0,0,0,0,0,0,0,0,0,0,0,0,0,0,0,0,0,0,0,0,0,0,0,0,0,0,0,0,0,0,0,0,0,0,0,0,0,0,0,0,0,0,0,0,0,0,0,0,0,0,0,0,0,0,0,0,0,0,0,0,0,0,0,0,0,0,0,0,0,0,0,0,0,0,0,0,0,0,0,0,0,0,0,0,0,0,0,0,0,0,0],"id":2,"left_children":[1,3,5,7,9,11,13,15,17,19,21,23,25,27,-1,29,31,33,35,37,39,41,43,45,47,49,51,53,55,57,59,61,63,-1,65,-1,-1,67,69,71,73,75,77,79,81,83,85,87,89,91,93,95,97,99,101,103,-1,-1,-1,-1,-1,-1,-1,-1,-1,-1,-1,-1,-1,-1,-1,-1,-1,-1,-1,-1,-1,-1,-1,-1,-1,-1,-1,-1,-1,-1,-1,-1,-1,-1,-1,-1,-1,-1,-1,-1,-1,-1,-1,-1,-1,-1,-1,-1,-1],"loss_changes":[7.086412E5,4.0642225E5,4.106666E5,8.162945E4,1.2881131E5,1.20938766E5,1.36971875E4,3.7809574E4,6.0629547E4,9.08725E3,5.1192984E4,2.3448557E4,1.1374091E5,1.4566203E4,0E0,7.8105967E3,1.8920148E4,8.978501E3,1.4889531E3,2.1688848E3,2.4149688E3,4.9615344E4,2.6356188E4,6.529789E3,1.2678198E4,5.301003E4,5.4601523E4,3.2581055E3,1.08359375E2,3.7078384E3,1.6758599E3,3.2222656E3,4.41959E3,0E0,1.2089648E3,0E0,0E0,3.6635938E2,1.1924055E3,7.9896875E2,7.9703125E2,5.2011914E3,1.2838427E4,7.1780938E3,7.407367E3,6.12375E2,1.6788354E3,2.1333735E3,3.790792E3,1.6267502E4,3.435472E4,6.7446494E3,2.5824125E4,1.7252383E3,1.6538281E2,3.9774805E2,0E0,0E0,0E0,0E0,0E0,0E0,0E0,0E0,0E0,0E0,0E0,0E0,0E0,0E0,0E0,0E0,0E0,0E0,0E0,0E0,0E0,0E0,0E0,0E0,0E0,0E0,0E0,0E0,0E0,0E0,0E0,0E0,0E0,0E0,0E0,0E0,0E0,0E0,0E0,0E0,0E0,0E0,0E0,0E0,0E0,0E0,0E0,0E0,0E0],"parents":[2147483647,0,0,1,1,2,2,3,3,4,4,5,5,6,6,7,7,8,8,9,9,10,10,11,11,12,12,13,13,15,15,16,16,17,17,18,18,19,19,20,20,21,21,22,22,23,23,24,24,25,25,26,26,27,27,28,28,29,29,30,30,31,31,32,32,34,34,37,37,38,38,39,39,40,40,41,41,42,42,43,43,44,44,45,45,46,46,47,47,48,48,49,49,50,50,51,51,52,52,53,53,54,54,55,55],"right_children":[2,4,6,8,10,12,14,16,18,20,22,24,26,28,-1,30,32,34,36,38,40,42,44,46,48,50,52,54,56,58,60,62,64,-1,66,-1,-1,68,70,72,74,76,78,80,82,84,86,88,90,92,94,96,98,100,102,104,-1,-1,-1,-1,-1,-1,-1,-1,-1,-1,-1,-1,-1,-1,-1,-1,-1,-1,-1,-1,-1,-1,-1,-1,-1,-1,-1,-1,-1,-1,-1,-1,-1,-1,-1,-1,-1,-1,-1,-1,-1,-1,-1,-1,-1,-1,-1,-1,-1],"split_conditions":[1.2E2,1E-1,9.71102E5,5.385E1,2.336E4,3.228E1,6E-1,3E-1,4E-1,2E-1,4E-1,4E-1,2E-1,5E-1,1.5671023E0,7.2E-2,7.36E-2,1E-1,2.4355E4,6E-1,2.0248E4,5E-1,6.6263E4,2.72212E5,2.72212E5,3E-1,5E-1,3E-1,6E-1,1E-1,1E-1,5.229E1,5E-1,-4.2282858E-1,2.4355E4,2.1435568E0,2.7611296E0,2.0248E4,2.0248E4,8E-1,4E-1,7.2E-2,4.457E1,3.117E1,6E-1,1E-1,2E-1,2E-1,8E-1,1.30782E5,1.79987E5,2E-1,6E-1,2E-1,3E-1,5E-1,1.4566349E0,-2.2233105E-1,6.715216E-1,-6.41687E-1,-2.3545645E-1,9.824032E-1,1.4861658E0,1.3692075E-1,5.916591E-1,1.1274865E0,5.871375E-1,-6.458556E-1,-4.4218332E-1,-3.9113703E-1,-3.7289236E-2,-8.3939296E-1,-7.4146944E-1,-5.8451563E-1,-7.25522E-1,-1.4015296E-1,-4.3736434E-1,-1.1954323E-1,3.0721983E-1,-6.7110294E-1,-4.594887E-1,-3.4086022E-1,-1.2545098E-1,-5.8407426E-1,-4.146268E-1,-2.6105806E-1,-9.409969E-2,4.1596454E-2,-2.0949809E-1,5.5791855E-2,2.447036E-1,6.36888E-1,-1.9036636E-1,1.3656402E0,5.872197E-1,-7.3810495E-2,1.1808973E-1,5.887552E-1,2.5096354E-1,7.7695674E-1,3.2504934E-1,1.1196388E0,8.845952E-1,1.2749107E0,5.941157E-1],"split_indices":[6,1,3,4,3,4,0,0,0,1,1,0,1,1,0,5,5,0,3,0,3,0,3,3,3,0,0,0,1,0,0,4,0,0,3,0,0,3,3,0,1,5,4,4,0,0,0,1,0,3,3,0,1,0,1,0,0,0,0,0,0,0,0,0,0,0,0,0,0,0,0,0,0,0,0,0,0,0,0,0,0,0,0,0,0,0,0,0,0,0,0,0,0,0,0,0,0,0,0,0,0,0,0,0,0],"split_type":[0,0,0,0,0,0,0,0,0,0,0,0,0,0,0,0,0,0,0,0,0,0,0,0,0,0,0,0,0,0,0,0,0,0,0,0,0,0,0,0,0,0,0,0,0,0,0,0,0,0,0,0,0,0,0,0,0,0,0,0,0,0,0,0,0,0,0,0,0,0,0,0,0,0,0,0,0,0,0,0,0,0,0,0,0,0,0,0,0,0,0,0,0,0,0,0,0,0,0,0,0,0,0,0,0],"sum_hessian":[1.7023E4,8.544E3,8.479E3,7.87E2,7.757E3,7.603E3,8.76E2,6.18E2,1.69E2,2.349E3,5.408E3,2.54E3,5.063E3,4.74E2,4.02E2,1.67E2,4.51E2,6.7E1,1.02E2,2.45E2,2.104E3,1.648E3,3.76E3,9.25E2,1.615E3,8.74E2,4.189E3,2.17E2,2.57E2,5E1,1.17E2,1.72E2,2.79E2,1.7E1,5E1,4.8E1,5.4E1,1.35E2,1.1E2,1.397E3,7.07E2,7.63E2,8.85E2,2.137E3,1.623E3,3.2E2,6.05E2,5.33E2,1.082E3,2.36E2,6.38E2,1.899E3,2.29E3,1.04E2,1.13E2,4.8E1,2.09E2,1.7E1,3.3E1,3.8E1,7.9E1,1.2E2,5.2E1,7.3E1,2.06E2,2.6E1,2.4E1,9.1E1,4.4E1,7.5E1,3.5E1,1.017E3,3.8E2,1.6E2,5.47E2,2.01E2,5.62E2,2.42E2,6.43E2,5.45E2,1.592E3,9.09E2,7.14E2,8E1,2.4E2,3.07E2,2.98E2,1.05E2,4.28E2,6.14E2,4.68E2,1.18E2,1.18E2,4.21E2,2.17E2,7.68E2,1.131E3,1.03E3,1.26E3,7.1E1,3.3E1,7.1E1,4.2E1,4.3E1,5E0],"tree_param":{"num_deleted":"0","num_feature":"9","num_nodes":"105","size_leaf_vector":"1"}},{"base_weights":[-1.4340274E-2,1.4939194E1,-3.3335447E0,6.769274E1,9.437157E0,-9.728765E0,1.0094016E-1,9.7325E1,3.677619E1,5.4857616E0,8.714633E1,-1.618208E0,-1.1527326E1,-4.4146276E0,4.0648537E0,6.0593494E1,1.3275883E2,1.7105415E1,5.0072357E1,-8.659352E0,1.3593956E1,5.925224E0,2.923024E0,-5.268848E0,8.093445E0,-1.4663676E1,-9.189862E0,-1.8017286E-2,-6.582834E0,1.0412747E1,9.004421E-1,4.935761E1,4.12066E0,1.1557047E2,8.866832E0,1.1358354E0,1.3003349E1,3.9485725E1,6.1259846E1,6.95548E-1,-1.1162995E1,2.412002E1,9.232484E0,-8.858903E-3,-7.8563046E0,2.0368256E1,2.7026832E0,-1.5356877E1,-1.3291434E1,-1.2417391E1,-8.080334E0,-2.1950603E0,4.4207444E0,-4.5231414E0,-7.57866E0,7.936413E0,2.5257784E1,-1.0780056E0,3.4555328E0,1.9738728E0,2.6924946E0,4.6140456E0,6.239341E0,4.7465292E-1,9.04609E-1,2.232101E0,1.5487965E0,3.2473996E0,1.7297306E0,-3.7164292E-1,3.5058483E-1,-7.523013E-1,-4.004302E-1,1.3780404E0,3.7742344E-1,3.4891919E-3,6.775419E-1,2.1015652E-1,-1.9053765E-1,-4.481235E-1,-1.5418857E-1,1.5163829E0,3.1744E-1,3.2400712E-1,-4.4542994E-2,-6.8412095E-1,-7.9129666E-1,-5.6923294E-1,-6.9057935E-1,-5.16562E-1,-6.4953643E-1,-2.776385E-1,-4.677963E-1,-2.588538E-3,-2.09885E-1,4.41041E-1,1.011646E-1,-3.02619E-1,-1.4953832E-1,-4.2634845E-1,-3.3042338E-1,7.2639793E-1,2.082007E-1,1.7567896E0,1.0173416E0,2.5492623E-2,-1.3384527E-1,2.9095683E-1,4.798969E-2],"categories":[],"categories_nodes":[],"categories_segments":[],"categories_sizes":[],"default_left":[0,0,0,0,0,0,0,0,0,0,0,0,0,0,0,0,0,0,0,0,0,0,0,0,0,0,0,0,0,0,0,0,0,0,0,0,0,0,0,0,0,0,0,0,0,0,0,0,0,0,0,0,0,0,0,0,0,0,0,0,0,0,0,0,0,0,0,0,0,0,0,0,0,0,0,0,0,0,0,0,0,0,0,0,0,0,0,0,0,0,0,0,0,0,0,0,0,0,0,0,0,0,0,0,0,0,0,0,0],"id":3,"left_children":[1,3,5,7,9,11,13,15,17,19,21,23,25,27,29,31,33,35,37,39,41,-1,-1,43,45,47,49,51,53,55,57,59,-1,61,-1,-1,63,65,67,69,71,73,75,77,79,81,83,85,87,89,91,93,95,97,99,101,103,105,107,-1,-1,-1,-1,-1,-1,-1,-1,-1,-1,-1,-1,-1,-1,-1,-1,-1,-1,-1,-1,-1,-1,-1,-1,-1,-1,-1,-1,-1,-1,-1,-1,-1,-1,-1,-1,-1,-1,-1,-1,-1,-1,-1,-1,-1,-1,-1,-1,-1,-1],"loss_changes":[8.481432E5,9.003032E5,3.0714962E5,2.6484612E5,8.629736E5,7.1255E4,1.6288386E5,1.8588475E5,3.706767E4,3.071464E5,1.15409E5,3.1525572E4,2.9182375E4,4.0552234E4,9.733392E4,1.4319531E4,3.6971625E4,1.0856797E3,7.76675E3,2.2866969E4,7.791466E4,0E0,0E0,8.791986E3,1.6024399E4,1.4186875E3,8.1145625E3,1.3596409E4,5.809289E3,5.905872E4,1.6357017E4,1.8214062E2,0E0,7.19375E2,0E0,0E0,4.8919092E2,6.794844E2,1.6869531E3,1.0679544E4,9.31093E3,2.8187531E4,4.7678234E4,3.4429138E3,2.2582598E3,1.0139734E4,2.3134316E3,6.6859375E2,4.180078E2,5.654922E2,5.461328E3,4.0516548E3,4.866326E3,2.1635723E3,1.7092031E3,3.4329094E4,1.0442484E4,4.6321826E3,8.323719E3,0E0,0E0,0E0,0E0,0E0,0E0,0E0,0E0,0E0,0E0,0E0,0E0,0E0,0E0,0E0,0E0,0E0,0E0,0E0,0E0,0E0,0E0,0E0,0E0,0E0,0E0,0E0,0E0,0E0,0E0,0E0,0E0,0E0,0E0,0E0,0E0,0E0,0E0,0E0,0E0,0E0,0E0,0E0,0E0,0E0,0E0,0E0,0E0,0E0,0E0],"parents":[2147483647,0,0,1,1,2,2,3,3,4,4,5,5,6,6,7,7,8,8,9,9,10,10,11,11,12,12,13,13,14,14,15,15,16,16,17,17,18,18,19,19,20,20,23,23,24,24,25,25,26,26,27,27,28,28,29,29,30,30,31,31,33,33,36,36,37,37,38,38,39,39,40,40,41,41,42,42,43,43,44,44,45,45,46,46,47,47,48,48,49,49,50,50,51,51,52,52,53,53,54,54,55,55,56,56,57,57,58,58],"right_children":[2,4,6,8,10,12,14,16,18,20,22,24,26,28,30,32,34,36,38,40,42,-1,-1,44,46,48,50,52,54,56,58,60,-1,62,-1,-1,64,66,68,70,72,74,76,78,80,82,84,86,88,90,92,94,96,98,100,102,104,106,108,-1,-1,-1,-1,-1,-1,-1,-1,-1,-1,-1,-1,-1,-1,-1,-1,-1,-1,-1,-1,-1,-1,-1,-1,-1,-1,-1,-1,-1,-1,-1,-1,-1,-1,-1,-1,-1,-1,-1,-1,-1,-1,-1,-1,-1,-1,-1,-1,-1,-1],"split_conditions":[2E-1,1E-1,6.6263E4,1E-1,9.71102E5,2E-1,4.729E1,5.089E1,4.66E1,6.6263E4,1E-1,5.385E1,2.336E4,5E-1,5E-1,4.457E1,8.15E1,4.8935E4,5.476E1,3E-1,4E-1,5.925224E0,2.923024E0,5E-1,5E-1,2.0248E4,3.117E1,3.88608E5,7E-1,1.87076E5,8E-2,3.109E1,4.12066E0,1E0,8.866832E0,1.1358354E0,3.228E1,7.46E-2,1.22738E5,2.336E4,2.336E4,8.74E-2,1.11871E5,1E-1,4.8935E4,1E-1,1E-1,4E-1,4E-1,4E-1,5E-1,8.14E-2,3E-1,6.6194E4,6.6194E4,4E-1,3E-1,8E-1,8E-1,1.9738728E0,2.6924946E0,4.6140456E0,6.239341E0,4.7465292E-1,9.04609E-1,2.232101E0,1.5487965E0,3.2473996E0,1.7297306E0,-3.7164292E-1,3.5058483E-1,-7.523013E-1,-4.004302E-1,1.3780404E0,3.7742344E-1,3.4891919E-3,6.775419E-1,2.1015652E-1,-1.9053765E-1,-4.481235E-1,-1.5418857E-1,1.5163829E0,3.1744E-1,3.2400712E-1,-4.4542994E-2,-6.8412095E-1,-7.9129666E-1,-5.6923294E-1,-6.9057935E-1,-5.16562E-1,-6.4953643E-1,-2.776385E-1,-4.677963E-1,-2.588538E-3,-2.09885E-1,4.41041E-1,1.011646E-1,-3.02619E-1,-1.4953832E-1,-4.2634845E-1,-3.3042338E-1,7.2639793E-1,2.082007E-1,1.7567896E0,1.0173416E0,2.5492623E-2,-1.3384527E-1,2.9095683E-1,4.798969E-2],"split_indices":[2,1,3,2,3,1,4,4,4,3,2,4,3,2,2,4,4,3,4,1,1,0,0,2,2,3,4,3,2,3,5,4,0,7,0,0,4,5,3,3,3,5,3,1,3,1,1,1,1,1,1,5,2,8,8,1,2,2,2,0,0,0,0,0,0,0,0,0,0,0,0,0,0,0,0,0,0,0,0,0,0,0,0,0,0,0,0,0,0,0,0,0,0,0,0,0,0,0,0,0,0,0,0,0,0,0,0,0,0],"split_type":[0,0,0,0,0,0,0,0,0,0,0,0,0,0,0,0,0,0,0,0,0,0,0,0,0,0,0,0,0,0,0,0,0,0,0,0,0,0,0,0,0,0,0,0,0,0,0,0,0,0,0,0,0,0,0,0,0,0,0,0,0,0,0,0,0,0,0,0,0,0,0,0,0,0,0,0,0,0,0,0,0,0,0,0,0,0,0,0,0,0,0,0,0,0,0,0,0,0,0,0,0,0,0,0,0,0,0,0,0],"sum_hessian":[1.7086E4,3.103E3,1.3983E4,2.92E2,2.811E3,4.885E3,9.098E3,1.48E2,1.44E2,2.676E3,1.35E2,8.87E2,3.998E3,4.253E3,4.845E3,7.4E1,7.4E1,5.9E1,8.5E1,9.75E2,1.701E3,6.3E1,7.2E1,6.45E2,2.42E2,1.705E3,2.293E3,1.405E3,2.848E3,1.611E3,3.234E3,5.1E1,2.3E1,5.6E1,1.8E1,2.3E1,3.6E1,4.6E1,3.9E1,2.06E2,7.69E2,4.97E2,1.204E3,2.13E2,4.32E2,7.3E1,1.69E2,1.126E3,5.79E2,5.84E2,1.709E3,9.43E2,4.62E2,9.3E2,1.918E3,1.382E3,2.29E2,1.823E3,1.411E3,1.9E1,3.2E1,1.9E1,3.7E1,2.3E1,1.3E1,2.6E1,2E1,3.3E1,6E0,9E1,1.16E2,3.43E2,4.26E2,4.11E2,8.6E1,3.86E2,8.18E2,1.01E2,1.12E2,3.5E2,8.2E1,4.2E1,3.1E1,8.2E1,8.7E1,2.53E2,8.73E2,1.29E2,4.5E2,1.3E2,4.54E2,5.75E2,1.134E3,4.56E2,4.87E2,1.62E2,3E2,4.64E2,4.66E2,9.66E2,9.52E2,5.02E2,8.8E2,7.4E1,1.55E2,9.15E2,9.08E2,7.24E2,6.87E2],"tree_param":{"num_deleted":"0","num_feature":"9","num_nodes":"109","size_leaf_vector":"1"}},{"base_weights":[-4.6599878E-4,1.3902563E1,-3.1180604E0,1.0090305E1,8.1976845E1,-9.1593895E0,1.5305199E-1,6.2256496E1,4.939847E0,5.6445575E0,5.296298E1,-1.1292276E0,-1.091928E1,5.423929E0,-2.4789042E0,9.058305E1,3.4308083E1,-5.0994334E0,1.5775649E1,2.131629E0,2.8571477E0,7.7314095E0,-3.771354E0,-1.3939625E1,-8.661117E0,3.814013E0,2.4894997E1,-3.4996996E0,3.187099E0,1.02386795E2,2.1752737E0,4.0577473E1,1.1966332E1,-9.493695E0,1.6893448E0,2.5130856E1,1.1922505E1,1.5943012E1,-6.380453E-1,-7.961672E0,-6.859508E-1,-1.4601824E1,-1.2617461E1,-7.6350656E0,-1.1718819E1,5.3911757E0,-3.94542E0,3.4993343E1,1.974974E1,1.0341731E0,-4.5208063E0,7.017591E0,1.1256021E0,5.4528146E0,2.944429E0,9.7518206E-1,2.2503266E0,3.1762606E-1,8.107897E-1,-9.2177056E-2,-5.720169E-1,7.8948295E-1,-9.197866E-2,1.6474333E0,8.61072E-1,4.5684567E-1,1.0899926E0,2.4566606E-1,1.1489848E0,-4.2149502E-1,1.0877649E-1,-4.649543E-1,-2.7411115E-1,1.10129535E-1,-4.1866595E-1,-6.532723E-1,-7.516579E-1,-5.373813E-1,-6.568029E-1,-2.8427738E-1,-4.5780107E-1,-4.8156005E-1,-6.142232E-1,5.162304E-1,1.7402096E-1,-8.57531E-2,-2.3710425E-1,1.4885653E0,1.9846512E0,1.192227E0,7.882495E-1,3.4472704E-1,-6.3746884E-2,-1.433417E-1,-3.313257E-1,2.5387216E-1,4.4335374E-1,1.2622401E-1,-1.2692134E-2],"categories":[],"categories_nodes":[],"categories_segments":[],"categories_sizes":[],"default_left":[0,0,0,0,0,0,0,0,0,0,0,0,0,0,0,0,0,0,0,0,0,0,0,0,0,0,0,0,0,0,0,0,0,0,0,0,0,0,0,0,0,0,0,0,0,0,0,0,0,0,0,0,0,0,0,0,0,0,0,0,0,0,0,0,0,0,0,0,0,0,0,0,0,0,0,0,0,0,0,0,0,0,0,0,0,0,0,0,0,0,0,0,0,0,0,0,0,0,0],"id":4,"left_children":[1,3,5,7,9,11,13,15,17,-1,19,21,23,25,27,29,31,33,35,-1,-1,37,39,41,43,45,47,49,51,53,-1,55,57,59,61,63,65,67,69,71,73,75,77,79,81,83,85,87,89,91,93,95,97,-1,-1,-1,-1,-1,-1,-1,-1,-1,-1,-1,-1,-1,-1,-1,-1,-1,-1,-1,-1,-1,-1,-1,-1,-1,-1,-1,-1,-1,-1,-1,-1,-1,-1,-1,-1,-1,-1,-1,-1,-1,-1,-1,-1,-1,-1],"loss_changes":[7.368914E5,8.073077E5,2.7443444E5,7.922978E5,1.4201675E5,6.892459E4,1.2500663E5,2.0668819E5,2.922733E5,0E0,1.3205781E3,2.0583947E4,2.7167812E4,9.397677E4,3.4771977E4,6.834125E4,1.8423781E4,4.1631215E4,4.6273062E4,0E0,0E0,1.3892954E4,8.747349E3,1.3129062E3,7.1013438E3,3.3956938E4,1.1207406E4,2.3583059E4,7.24113E3,2.3749375E4,0E0,8.922609E3,6.3651514E2,1.2592531E4,2.7346656E4,2.2682266E4,2.5031398E4,7.8035625E3,2.2325596E3,9.0072656E2,8.700708E3,5.5440625E2,4.193125E2,5.045008E3,5.594922E2,2.1692344E4,8.25209E2,6.8346875E2,2.136871E3,1.2688497E4,1.4458922E4,1.1068145E3,1.1545864E3,0E0,0E0,0E0,0E0,0E0,0E0,0E0,0E0,0E0,0E0,0E0,0E0,0E0,0E0,0E0,0E0,0E0,0E0,0E0,0E0,0E0,0E0,0E0,0E0,0E0,0E0,0E0,0E0,0E0,0E0,0E0,0E0,0E0,0E0,0E0,0E0,0E0,0E0,0E0,0E0,0E0,0E0,0E0,0E0,0E0,0E0],"parents":[2147483647,0,0,1,1,2,2,3,3,4,4,5,5,6,6,7,7,8,8,10,10,11,11,12,12,13,13,14,14,15,15,16,16,17,17,18,18,21,21,22,22,23,23,24,24,25,25,26,26,27,27,28,28,29,29,31,31,32,32,33,33,34,34,35,35,36,36,37,37,38,38,39,39,40,40,41,41,42,42,43,43,44,44,45,45,46,46,47,47,48,48,49,49,50,50,51,51,52,52],"right_children":[2,4,6,8,10,12,14,16,18,-1,20,22,24,26,28,30,32,34,36,-1,-1,38,40,42,44,46,48,50,52,54,-1,56,58,60,62,64,66,68,70,72,74,76,78,80,82,84,86,88,90,92,94,96,98,-1,-1,-1,-1,-1,-1,-1,-1,-1,-1,-1,-1,-1,-1,-1,-1,-1,-1,-1,-1,-1,-1,-1,-1,-1,-1,-1,-1,-1,-1,-1,-1,-1,-1,-1,-1,-1,-1,-1,-1,-1,-1,-1,-1,-1,-1],"split_conditions":[2E-1,9.71102E5,6.6263E4,1E-1,1E-1,2E-1,5E-1,1E-1,1.2E2,5.6445575E0,4E-1,4E-1,2.336E4,9.71102E5,9.3747E4,1.87076E5,1.87076E5,4.8935E4,4E-1,2.131629E0,2.8571477E0,1E-1,2.336E4,2.0248E4,6.4958E4,8.74E-2,3E-1,8.0454E4,7E-1,8.74E-2,2.1752737E0,2.336E4,3.88608E5,3E-1,3E-1,1E-1,3.88608E5,2.336E4,2.0248E4,2.0248E4,6.4958E4,4E-1,4E-1,6E-1,4E-1,3E-1,3E-1,6E-1,4E-1,3E-1,8E-2,1.22738E5,9E-1,5.4528146E0,2.944429E0,9.7518206E-1,2.2503266E0,3.1762606E-1,8.107897E-1,-9.2177056E-2,-5.720169E-1,7.8948295E-1,-9.197866E-2,1.6474333E0,8.61072E-1,4.5684567E-1,1.0899926E0,2.4566606E-1,1.1489848E0,-4.2149502E-1,1.0877649E-1,-4.649543E-1,-2.7411115E-1,1.10129535E-1,-4.1866595E-1,-6.532723E-1,-7.516579E-1,-5.373813E-1,-6.568029E-1,-2.8427738E-1,-4.5780107E-1,-4.8156005E-1,-6.142232E-1,5.162304E-1,1.7402096E-1,-8.57531E-2,-2.3710425E-1,1.4885653E0,1.9846512E0,1.192227E0,7.882495E-1,3.4472704E-1,-6.3746884E-2,-1.433417E-1,-3.313257E-1,2.5387216E-1,4.4335374E-1,1.2622401E-1,-1.2692134E-2],"split_indices":[2,3,3,1,2,1,2,2,6,0,1,2,3,3,6,3,3,3,1,0,0,1,3,3,8,5,2,3,2,5,0,3,3,1,1,2,3,3,3,3,8,1,1,1,1,1,1,1,2,1,5,3,2,0,0,0,0,0,0,0,0,0,0,0,0,0,0,0,0,0,0,0,0,0,0,0,0,0,0,0,0,0,0,0,0,0,0,0,0,0,0,0,0,0,0,0,0,0,0],"split_type":[0,0,0,0,0,0,0,0,0,0,0,0,0,0,0,0,0,0,0,0,0,0,0,0,0,0,0,0,0,0,0,0,0,0,0,0,0,0,0,0,0,0,0,0,0,0,0,0,0,0,0,0,0,0,0,0,0,0,0,0,0,0,0,0,0,0,0,0,0,0,0,0,0,0,0,0,0,0,0,0,0,0,0,0,0,0,0,0,0,0,0,0,0,0,0,0,0,0,0],"sum_hessian":[1.6999E4,3.113E3,1.3886E4,2.949E3,1.64E2,4.877E3,9.009E3,2.64E2,2.685E3,7.8E1,8.6E1,8.77E2,4E3,3E3,6.009E3,1.3E2,1.34E2,1.394E3,1.291E3,2.8E1,5.8E1,2.01E2,6.76E2,1.709E3,2.291E3,2.772E3,2.28E2,5.092E3,9.17E2,1.03E2,2.7E1,1.04E2,3E1,8.46E2,5.48E2,3.75E2,9.16E2,1.01E2,1E2,2.86E2,3.9E2,1.132E3,5.77E2,1.718E3,5.73E2,2.304E3,4.68E2,7.5E1,1.53E2,9.36E2,4.156E3,3.2E2,5.97E2,8.8E1,1.5E1,1.9E1,8.5E1,1.4E1,1.6E1,1.72E2,6.74E2,1.09E2,4.39E2,1.87E2,1.88E2,7.16E2,2E2,4E1,6.1E1,2.6E1,7.4E1,1.84E2,1.02E2,2.84E2,1.06E2,2.55E2,8.77E2,1.3E2,4.47E2,7.55E2,9.63E2,1.26E2,4.47E2,6.42E2,1.662E3,1.24E2,3.44E2,3.9E1,3.6E1,7.3E1,8E1,2.64E2,6.72E2,2.329E3,1.827E3,1.58E2,1.62E2,2.96E2,3.01E2],"tree_param":{"num_deleted":"0","num_feature":"9","num_nodes":"99","size_leaf_vector":"1"}},{"base_weights":[-1.0179856E-1,1.3164717E1,-3.0447652E0,6.1038807E1,8.510806E0,-8.833866E0,1.0487592E-1,3.6214127E1,9.162386E1,4.860939E0,7.891852E1,-1.6251545E0,-1.039819E1,-4.060671E0,3.7071435E0,-1.4998069E1,4.26784E1,1.2823238E2,5.231304E1,-4.5748954E0,1.5261524E1,1.08062195E2,5.1465206E1,-7.0279346E0,4.666651E0,-1.3304786E1,-8.213458E0,1.2140768E0,-5.555739E0,1.1436212E1,1.5262806E0,-1.154765E0,-7.745712E0,6.146301E1,2.2135328E1,-1.4628564E0,1.4231349E2,2.449176E1,7.095305E1,-8.976834E0,2.0672045E0,7.1874037E0,1.9779797E1,6.1281285E0,4.7938747E0,4.051959E1,2.84455E0,-9.351294E0,-1.0283811E0,1.4501269E-1,1.6655771E1,-1.3928028E1,-1.1993295E1,-1.0248776E1,-5.727934E0,-4.4036803E0,4.2384467E0,-7.826613E0,-3.6449962E0,8.759687E0,2.7368952E1,-1.9626878E0,4.4473243E0,-5.5710214E-1,4.916897E-2,2.3887348E0,4.236926E0,4.6069318E-1,1.6503104E0,5.916387E0,9.452069E0,3.5604337E-1,1.663462E0,2.8913362E0,4.486417E0,1.2329264E-1,-5.1232445E-1,8.0285674E-1,-8.070202E-2,2.3572798E-1,7.946555E-1,1.8344126E0,7.981177E-1,1.1192888E0,2.27491E0,-6.5605044E-1,-3.670829E-1,3.67644E-1,-2.6743573E-1,4.6101704E-1,-1.1882658E-1,1.4853387E0,5.2930087E-1,-7.253239E-1,-6.418187E-1,-4.6705493E-1,-6.158405E-1,-6.224297E-1,-4.739236E-1,-1.03980176E-1,-3.819612E-1,-3.0840328E-1,-1.0892014E-2,9.483574E-2,4.515027E-1,-3.2407913E-1,-4.383671E-1,-6.0956735E-2,-2.7003202E-1,1.3186821E-1,6.9773394E-1,6.868528E-1,1.5781242E0,-1.9945024E-1,-3.1110123E-2,3.8465154E-1,9.99498E-2],"categories":[],"categories_nodes":[],"categories_segments":[],"categories_sizes":[],"default_left":[0,0,0,0,0,0,0,0,0,0,0,0,0,0,0,0,0,0,0,0,0,0,0,0,0,0,0,0,0,0,0,0,0,0,0,0,0,0,0,0,0,0,0,0,0,0,0,0,0,0,0,0,0,0,0,0,0,0,0,0,0,0,0,0,0,0,0,0,0,0,0,0,0,0,0,0,0,0,0,0,0,0,0,0,0,0,0,0,0,0,0,0,0,0,0,0,0,0,0,0,0,0,0,0,0,0,0,0,0,0,0,0,0,0,0,0,0],"id":5,"left_children":[1,3,5,7,9,11,13,15,17,19,21,23,25,27,29,31,33,35,37,39,41,43,45,47,49,51,53,55,57,59,61,-1,63,65,67,-1,69,71,73,75,77,79,81,-1,-1,83,-1,85,87,89,91,93,95,97,99,101,103,105,107,109,111,113,115,-1,-1,-1,-1,-1,-1,-1,-1,-1,-1,-1,-1,-1,-1,-1,-1,-1,-1,-1,-1,-1,-1,-1,-1,-1,-1,-1,-1,-1,-1,-1,-1,-1,-1,-1,-1,-1,-1,-1,-1,-1,-1,-1,-1,-1,-1,-1,-1,-1,-1,-1,-1,-1,-1],"loss_changes":[6.7028975E5,6.939535E5,2.5620111E5,2.0623881E5,7.2995E5,5.5814312E4,1.3657934E5,5.162175E4,1.7030238E5,2.6533738E5,1.0645125E5,3.008282E4,2.5723031E4,3.3294008E4,8.225686E4,8.7814307E2,5.150689E4,1.4387425E5,2.989614E4,4.147821E4,4.67725E4,8.66875E1,2.0895625E3,6.6254043E3,2.2169664E4,1.2585E3,1.1703078E4,1.5870497E4,1.4242633E4,4.5560312E4,3.8817688E4,0E0,3.3707263E2,1.8572438E4,9.107219E3,0E0,4.263775E4,3.7273857E3,3.6835156E3,1.2417859E4,2.9175121E4,9.892465E3,5.2601156E4,0E0,0E0,1.5093594E3,0E0,2.5021523E3,4.8914473E3,6.841297E3,8.557762E3,5.563906E2,3.7316406E2,2.0459219E3,7.2988086E3,2.4136938E3,6.7938125E3,1.8436641E3,7.608416E3,2.9255984E4,8.369953E3,4.712926E3,1.6457832E4,0E0,0E0,0E0,0E0,0E0,0E0,0E0,0E0,0E0,0E0,0E0,0E0,0E0,0E0,0E0,0E0,0E0,0E0,0E0,0E0,0E0,0E0,0E0,0E0,0E0,0E0,0E0,0E0,0E0,0E0,0E0,0E0,0E0,0E0,0E0,0E0,0E0,0E0,0E0,0E0,0E0,0E0,0E0,0E0,0E0,0E0,0E0,0E0,0E0,0E0,0E0,0E0,0E0,0E0],"parents":[2147483647,0,0,1,1,2,2,3,3,4,4,5,5,6,6,7,7,8,8,9,9,10,10,11,11,12,12,13,13,14,14,15,15,16,16,17,17,18,18,19,19,20,20,21,21,22,22,23,23,24,24,25,25,26,26,27,27,28,28,29,29,30,30,32,32,33,33,34,34,36,36,37,37,38,38,39,39,40,40,41,41,42,42,45,45,47,47,48,48,49,49,50,50,51,51,52,52,53,53,54,54,55,55,56,56,57,57,58,58,59,59,60,60,61,61,62,62],"right_children":[2,4,6,8,10,12,14,16,18,20,22,24,26,28,30,32,34,36,38,40,42,44,46,48,50,52,54,56,58,60,62,-1,64,66,68,-1,70,72,74,76,78,80,82,-1,-1,84,-1,86,88,90,92,94,96,98,100,102,104,106,108,110,112,114,116,-1,-1,-1,-1,-1,-1,-1,-1,-1,-1,-1,-1,-1,-1,-1,-1,-1,-1,-1,-1,-1,-1,-1,-1,-1,-1,-1,-1,-1,-1,-1,-1,-1,-1,-1,-1,-1,-1,-1,-1,-1,-1,-1,-1,-1,-1,-1,-1,-1,-1,-1,-1,-1,-1],"split_conditions":[2E-1,1E-1,6.6263E4,5.229E1,9.71102E5,2E-1,4.729E1,1E-1,1E-1,1.2E2,1E-1,6E-1,2.336E4,4E-1,4E-1,1E-1,1E-1,1E-1,5E-1,4.8935E4,4E-1,4E-1,4E-1,5.385E1,5.385E1,2.0248E4,6E-1,4E-1,5E-1,1.87076E5,5E-1,-1.154765E0,4.457E1,4.457E1,5E-1,-1.4628564E0,8.15E1,2E-1,7.321E1,2E-1,3E-1,3.88608E5,3E-1,6.1281285E0,4.7938747E0,4E-1,2.84455E0,2E-1,5E-1,4E-1,5E-1,7E-1,3E-1,3.117E1,5E-1,3.88608E5,3.88608E5,7E-1,7E-1,5E-1,3E-1,2E-1,7E-1,-5.5710214E-1,4.916897E-2,2.3887348E0,4.236926E0,4.6069318E-1,1.6503104E0,5.916387E0,9.452069E0,3.5604337E-1,1.663462E0,2.8913362E0,4.486417E0,1.2329264E-1,-5.1232445E-1,8.0285674E-1,-8.070202E-2,2.3572798E-1,7.946555E-1,1.8344126E0,7.981177E-1,1.1192888E0,2.27491E0,-6.5605044E-1,-3.670829E-1,3.67644E-1,-2.6743573E-1,4.6101704E-1,-1.1882658E-1,1.4853387E0,5.2930087E-1,-7.253239E-1,-6.418187E-1,-4.6705493E-1,-6.158405E-1,-6.224297E-1,-4.739236E-1,-1.03980176E-1,-3.819612E-1,-3.0840328E-1,-1.0892014E-2,9.483574E-2,4.515027E-1,-3.2407913E-1,-4.383671E-1,-6.0956735E-2,-2.7003202E-1,1.3186821E-1,6.9773394E-1,6.868528E-1,1.5781242E0,-1.9945024E-1,-3.1110123E-2,3.8465154E-1,9.99498E-2],"split_indices":[2,1,3,4,3,1,4,0,2,6,2,0,3,2,2,2,2,0,0,3,0,0,0,4,4,3,0,0,0,3,0,0,4,4,0,0,4,0,4,1,1,3,1,0,0,1,0,0,2,2,2,0,1,4,1,3,3,2,2,0,0,0,2,0,0,0,0,0,0,0,0,0,0,0,0,0,0,0,0,0,0,0,0,0,0,0,0,0,0,0,0,0,0,0,0,0,0,0,0,0,0,0,0,0,0,0,0,0,0,0,0,0,0,0,0,0,0],"split_type":[0,0,0,0,0,0,0,0,0,0,0,0,0,0,0,0,0,0,0,0,0,0,0,0,0,0,0,0,0,0,0,0,0,0,0,0,0,0,0,0,0,0,0,0,0,0,0,0,0,0,0,0,0,0,0,0,0,0,0,0,0,0,0,0,0,0,0,0,0,0,0,0,0,0,0,0,0,0,0,0,0,0,0,0,0,0,0,0,0,0,0,0,0,0,0,0,0,0,0,0,0,0,0,0,0,0,0,0,0,0,0,0,0,0,0,0,0],"sum_hessian":[1.7166E4,3.116E3,1.405E4,2.75E2,2.841E3,4.95E3,9.1E3,1.53E2,1.22E2,2.702E3,1.39E2,8.83E2,4.067E3,4.22E3,4.88E3,1.7E1,1.36E2,6.2E1,6E1,1.417E3,1.285E3,6.6E1,7.3E1,4.75E2,4.08E2,1.743E3,2.324E3,9.32E2,3.288E3,1.073E3,3.807E3,7E0,1E1,7E1,6.6E1,5E0,5.7E1,2.5E1,3.5E1,8.52E2,5.65E2,4.62E2,8.23E2,2.6E1,4E1,2.7E1,4.6E1,3.42E2,1.33E2,2.97E2,1.11E2,1.175E3,5.68E2,1.276E3,1.048E3,3.26E2,6.06E2,1.501E3,1.787E3,9.2E2,1.53E2,1.735E3,2.072E3,7E0,3E0,4.6E1,2.4E1,3.1E1,3.5E1,4E1,1.7E1,9E0,1.6E1,2.3E1,1.2E1,8.5E1,7.67E2,1.17E2,4.48E2,3.61E2,1.01E2,1.5E2,6.73E2,7E0,2E1,1.17E2,2.25E2,4.5E1,8.8E1,6.4E1,2.33E2,3.4E1,7.7E1,7.6E2,4.15E2,6.5E1,5.03E2,3.27E2,9.49E2,3.61E2,6.87E2,2.29E2,9.7E1,4.08E2,1.98E2,6.21E2,8.8E2,7.51E2,1.036E3,4.23E2,4.97E2,3.7E1,1.16E2,6.9E2,1.045E3,8.9E2,1.182E3],"tree_param":{"num_deleted":"0","num_feature":"9","num_nodes":"117","size_leaf_vector":"1"}},{"base_weights":[2.8271532E-2,1.2634651E1,-2.8165128E0,5.9840435E1,8.152535E0,-8.293137E0,1.5874179E-1,8.59566E1,3.249812E1,4.6809373E0,7.600235E1,2.3921323E0,-9.392885E0,-3.805466E0,3.6086097E0,-1.3195347E0,9.49399E1,1.6378933E1,5.2711E1,-4.3444E0,1.4391659E1,1.0483163E2,4.9262688E1,-3.4019964E0,1.2439469E1,-1.2151318E1,-7.2623267E0,-1.739879E-2,-5.728191E0,9.018991E0,8.615301E-1,6.1143375E1,1.2993066E2,1.1706148E0,2.6271954E1,2.8518215E1,6.737533E1,-8.523386E0,1.847253E0,8.039292E0,1.9553919E1,6.068095E0,4.6904135E0,3.1339537E1,2.6284308E0,2.2948663E0,-8.175925E0,3.2374245E1,7.28856E0,-1.0142739E1,-1.3026431E1,-9.8846855E0,-5.003334E0,-3.9076593E0,3.0750089E0,-7.396394E0,-3.6672032E0,6.8143272E0,2.2420149E1,-1.7361703E0,3.976742E0,2.3556807E0,4.009163E0,5.5900836E0,8.96407E0,-1.7038777E-1,4.35184E-1,9.769055E-1,1.8838389E0,7.136659E-1,1.6236776E0,2.8049629E0,4.150499E0,-5.557379E-1,-1.6271825E-1,1.0507008E0,-2.0564115E-2,2.8315085E-1,8.3195525E-1,1.8262255E0,7.8299195E-1,4.5750466E-1,1.9650153E0,-2.8619516E-1,4.100518E-1,-5.484032E-1,-2.1099578E-1,1.064583E0,2.680566E0,1.1197317E-1,9.99262E-1,-5.9429556E-1,-3.945621E-1,-6.799957E-1,-5.943685E-1,-5.4335403E-1,-4.2044267E-1,-6.903375E-3,-3.5508123E-1,-2.772332E-1,-2.5508735E-2,5.7474773E-2,3.4461898E-1,-3.1736127E-1,-4.2058253E-1,-9.643077E-2,-2.6657254E-1,1.290423E-1,6.151545E-1,7.4321514E-1,1.3852711E0,-3.1356853E-1,-4.8142914E-2,3.675464E-1,1.15925305E-1],"categories":[],"categories_nodes":[],"categories_segments":[],"categories_sizes":[],"default_left":[0,0,0,0,0,0,0,0,0,0,0,0,0,0,0,0,0,0,0,0,0,0,0,0,0,0,0,0,0,0,0,0,0,0,0,0,0,0,0,0,0,0,0,0,0,0,0,0,0,0,0,0,0,0,0,0,0,0,0,0,0,0,0,0,0,0,0,0,0,0,0,0,0,0,0,0,0,0,0,0,0,0,0,0,0,0,0,0,0,0,0,0,0,0,0,0,0,0,0,0,0,0,0,0,0,0,0,0,0,0,0,0,0,0,0],"id":6,"left_children":[1,3,5,7,9,11,13,15,17,19,21,23,25,27,29,-1,31,33,35,37,39,41,43,45,47,49,51,53,55,57,59,61,63,65,67,69,71,73,75,77,79,-1,-1,81,-1,83,85,87,89,91,93,95,97,99,101,103,105,107,109,111,113,-1,-1,-1,-1,-1,-1,-1,-1,-1,-1,-1,-1,-1,-1,-1,-1,-1,-1,-1,-1,-1,-1,-1,-1,-1,-1,-1,-1,-1,-1,-1,-1,-1,-1,-1,-1,-1,-1,-1,-1,-1,-1,-1,-1,-1,-1,-1,-1,-1,-1,-1,-1,-1,-1],"loss_changes":[6.0908725E5,6.6112825E5,2.2579212E5,1.9072131E5,6.7260294E5,5.7344375E4,1.2282415E5,1.41782E5,4.279589E4,2.3836255E5,1.0198875E5,2.6588615E4,2.5905719E4,3.0437277E4,7.136316E4,0E0,1.4342412E5,1.1403916E4,1.9010047E4,3.6499258E4,4.2801062E4,6.4175E2,2.7372031E3,7.9057236E3,1.6911969E4,3.2533125E3,1.4748422E4,1.6950639E4,9.503414E3,4.7621562E4,2.578925E4,1.4119672E4,3.5426188E4,1.0988241E3,2.796588E3,8.887363E2,1.6899062E3,1.1460488E4,2.4639975E4,1.1942293E4,4.714128E4,0E0,0E0,2.1134287E3,0E0,6.345849E3,1.6989414E3,6.860824E3,8.545549E3,2.217879E3,7.12375E2,1.5832031E3,1.371957E4,3.4676719E3,5.762139E3,1.5773906E3,3.583371E3,3.2267086E4,8.693289E3,6.089345E3,8.0903965E3,0E0,0E0,0E0,0E0,0E0,0E0,0E0,0E0,0E0,0E0,0E0,0E0,0E0,0E0,0E0,0E0,0E0,0E0,0E0,0E0,0E0,0E0,0E0,0E0,0E0,0E0,0E0,0E0,0E0,0E0,0E0,0E0,0E0,0E0,0E0,0E0,0E0,0E0,0E0,0E0,0E0,0E0,0E0,0E0,0E0,0E0,0E0,0E0,0E0,0E0,0E0,0E0,0E0,0E0],"parents":[2147483647,0,0,1,1,2,2,3,3,4,4,5,5,6,6,7,7,8,8,9,9,10,10,11,11,12,12,13,13,14,14,16,16,17,17,18,18,19,19,20,20,21,21,22,22,23,23,24,24,25,25,26,26,27,27,28,28,29,29,30,30,31,31,32,32,33,33,34,34,35,35,36,36,37,37,38,38,39,39,40,40,43,43,45,45,46,46,47,47,48,48,49,49,50,50,51,51,52,52,53,53,54,54,55,55,56,56,57,57,58,58,59,59,60,60],"right_children":[2,4,6,8,10,12,14,16,18,20,22,24,26,28,30,-1,32,34,36,38,40,42,44,46,48,50,52,54,56,58,60,62,64,66,68,70,72,74,76,78,80,-1,-1,82,-1,84,86,88,90,92,94,96,98,100,102,104,106,108,110,112,114,-1,-1,-1,-1,-1,-1,-1,-1,-1,-1,-1,-1,-1,-1,-1,-1,-1,-1,-1,-1,-1,-1,-1,-1,-1,-1,-1,-1,-1,-1,-1,-1,-1,-1,-1,-1,-1,-1,-1,-1,-1,-1,-1,-1,-1,-1,-1,-1,-1,-1,-1,-1,-1,-1],"split_conditions":[2E-1,1E-1,6.6263E4,1E-1,9.71102E5,1E-1,4.729E1,1E-1,5.229E1,1.2E2,1E-1,7E-1,2.336E4,5E-1,5E-1,-1.3195347E0,5.229E1,4E-1,5E-1,4.8935E4,5E-1,3E-1,3E-1,6E-1,4E-1,4E-1,5E-1,5E-1,6E-1,1.87076E5,6E-1,4.457E1,8.15E1,4.457E1,4.457E1,2E-1,7.321E1,5.385E1,2E-1,3.88608E5,3E-1,6.068095E0,4.6904135E0,2E-1,2.6284308E0,3E-1,4E-1,5.385E1,5.385E1,6E-1,2.0248E4,3E-1,4E-1,3.88608E5,3.88608E5,8E-1,8E-1,6E-1,5E-1,1E0,7E-1,2.3556807E0,4.009163E0,5.5900836E0,8.96407E0,-1.7038777E-1,4.35184E-1,9.769055E-1,1.8838389E0,7.136659E-1,1.6236776E0,2.8049629E0,4.150499E0,-5.557379E-1,-1.6271825E-1,1.0507008E0,-2.0564115E-2,2.8315085E-1,8.3195525E-1,1.8262255E0,7.8299195E-1,4.5750466E-1,1.9650153E0,-2.8619516E-1,4.100518E-1,-5.484032E-1,-2.1099578E-1,1.064583E0,2.680566E0,1.1197317E-1,9.99262E-1,-5.9429556E-1,-3.945621E-1,-6.799957E-1,-5.943685E-1,-5.4335403E-1,-4.2044267E-1,-6.903375E-3,-3.5508123E-1,-2.772332E-1,-2.5508735E-2,5.7474773E-2,3.4461898E-1,-3.1736127E-1,-4.2058253E-1,-9.643077E-2,-2.6657254E-1,1.290423E-1,6.151545E-1,7.4321514E-1,1.3852711E0,-3.1356853E-1,-4.8142914E-2,3.675464E-1,1.15925305E-1],"split_indices":[2,1,3,2,3,1,4,0,4,6,2,0,3,2,2,0,4,0,0,3,0,0,1,2,2,1,0,0,0,3,0,4,4,4,4,0,4,4,1,3,1,0,0,0,0,0,0,4,4,0,3,0,1,3,3,2,2,0,0,7,2,0,0,0,0,0,0,0,0,0,0,0,0,0,0,0,0,0,0,0,0,0,0,0,0,0,0,0,0,0,0,0,0,0,0,0,0,0,0,0,0,0,0,0,0,0,0,0,0,0,0,0,0,0,0],"split_type":[0,0,0,0,0,0,0,0,0,0,0,0,0,0,0,0,0,0,0,0,0,0,0,0,0,0,0,0,0,0,0,0,0,0,0,0,0,0,0,0,0,0,0,0,0,0,0,0,0,0,0,0,0,0,0,0,0,0,0,0,0,0,0,0,0,0,0,0,0,0,0,0,0,0,0,0,0,0,0,0,0,0,0,0,0,0,0,0,0,0,0,0,0,0,0,0,0,0,0,0,0,0,0,0,0,0,0,0,0,0,0,0,0,0,0],"sum_hessian":[1.6982E4,3.126E3,1.3856E4,2.7E2,2.856E3,4.877E3,8.979E3,1.37E2,1.33E2,2.718E3,1.38E2,4.55E2,4.422E3,4.178E3,4.801E3,1E1,1.27E2,7.5E1,5.8E1,1.409E3,1.309E3,6.5E1,7.3E1,2.89E2,1.66E2,1.925E3,2.497E3,1.407E3,2.771E3,1.616E3,3.185E3,6.6E1,6.1E1,3E1,4.5E1,2.3E1,3.5E1,8.41E2,5.68E2,5.88E2,7.21E2,2.2E1,4.3E1,1.3E1,6E1,1.32E2,1.57E2,3.3E1,1.33E2,5.88E2,1.337E3,1.154E3,1.343E3,6.23E2,7.84E2,1.53E3,1.241E3,1.389E3,2.27E2,1.737E3,1.448E3,4E1,2.6E1,4.7E1,1.4E1,1.9E1,1.1E1,3E1,1.5E1,6E0,1.7E1,2.3E1,1.2E1,5.63E2,2.78E2,5.9E1,5.09E2,4.62E2,1.26E2,1.33E2,5.88E2,4E0,9E0,5.6E1,7.6E1,9.1E1,6.6E1,2.3E1,1E1,9.6E1,3.7E1,3.29E2,2.59E2,8.82E2,4.55E2,6.89E2,4.65E2,4.05E2,9.38E2,4.2E2,2.03E2,5.22E2,2.62E2,7.56E2,7.74E2,6.08E2,6.33E2,7.85E2,6.04E2,9.5E1,1.32E2,2.52E2,1.485E3,4.76E2,9.72E2],"tree_param":{"num_deleted":"0","num_feature":"9","num_nodes":"115","size_leaf_vector":"1"}},{"base_weights":[-4.2070586E-2,1.1814261E1,-2.668052E0,8.605642E0,7.1089325E1,-7.832672E0,1.2233056E-1,-1.1821154E0,1.4386828E1,9.819209E1,4.572147E1,-1.0842331E1,-5.6115284E0,-3.6619954E0,3.392634E0,-4.7711E0,7.8171415E0,3.3059568E0,1.8446552E1,5.869012E0,4.533691E0,1.7369665E0,2.5744765E0,-1.2095918E1,-9.290232E0,-8.88918E0,-2.8372662E0,1.2520397E0,-5.047159E0,1.0442417E1,1.3639475E0,-8.886911E0,-1.9906482E0,-5.529484E-1,1.0013907E1,5.6748285E0,-6.91032E0,2.1229715E1,4.76515E0,-1.27515335E1,-1.0730284E1,-5.528926E-1,-8.408516E0,-1.0738017E1,-7.682131E0,-8.13265E0,-1.0589038E0,-2.3415718E0,5.5393248E0,-7.074925E0,-3.314884E0,8.05612E0,2.5099684E1,-1.2141327E0,4.50457E0,-6.525649E-1,-3.9380845E-1,-2.5736555E-1,1.6378942E-1,7.447786E-1,2.5824285E-1,5.208759E-1,6.652122E-2,-4.357194E-1,-1.8808496E-1,1.362844E0,7.433732E-1,3.6173064E-1,8.2502E-2,-6.736638E-1,-6.013368E-1,-5.7864916E-1,-4.9155542E-1,-2.927545E-1,-4.547927E-1,-6.180504E-1,-5.077263E-1,-5.1900476E-1,-3.414941E-1,-3.07069E-1,-4.5055914E-1,1.0084722E-1,-1.7388768E-1,-2.0550835E-1,8.207201E-2,3.9344263E-1,2.8273849E-2,-3.9235994E-1,-2.747302E-1,-5.5227656E-2,-2.4478386E-1,1.1982077E-1,6.400568E-1,6.947922E-1,1.4228472E0,-1.4516377E-1,4.677511E-2,3.8368902E-1,1.07285164E-1],"categories":[],"categories_nodes":[],"categories_segments":[],"categories_sizes":[],"default_left":[0,0,0,0,0,0,0,0,0,0,0,0,0,0,0,0,0,0,0,0,0,0,0,0,0,0,0,0,0,0,0,0,0,0,0,0,0,0,0,0,0,0,0,0,0,0,0,0,0,0,0,0,0,0,0,0,0,0,0,0,0,0,0,0,0,0,0,0,0,0,0,0,0,0,0,0,0,0,0,0,0,0,0,0,0,0,0,0,0,0,0,0,0,0,0,0,0,0,0],"id":7,"left_children":[1,3,5,7,9,11,13,15,17,19,21,23,25,27,29,31,33,35,37,-1,-1,-1,-1,39,41,43,45,47,49,51,53,55,57,-1,59,61,63,65,67,69,71,-1,73,75,77,79,81,83,85,87,89,91,93,95,97,-1,-1,-1,-1,-1,-1,-1,-1,-1,-1,-1,-1,-1,-1,-1,-1,-1,-1,-1,-1,-1,-1,-1,-1,-1,-1,-1,-1,-1,-1,-1,-1,-1,-1,-1,-1,-1,-1,-1,-1,-1,-1,-1,-1],"loss_changes":[5.3212025E5,5.887905E5,2.0164344E5,1.6643302E5,1.0482919E5,3.2748531E4,1.1244742E5,3.5339223E4,8.311678E4,3.20625E2,3.5323125E3,3.9404844E3,2.567179E4,2.8676336E4,6.9692734E4,8.931371E3,1.3048258E4,1.2067136E4,5.1417812E4,0E0,0E0,0E0,0E0,8.9190625E2,1.3642578E3,2.8074688E3,1.4418403E4,1.4295108E4,1.1519109E4,3.7887305E4,3.0659863E4,1.2230801E3,7.7970635E3,0E0,6.5510684E3,8.310218E3,5.0116943E2,4.269603E4,1.7573721E3,2.4128125E2,1.7340234E2,0E0,1.0489219E3,3.565078E2,1.7386836E3,6.181738E2,8.548151E3,3.564136E3,4.8967324E3,1.8034141E3,6.193082E3,2.5159672E4,5.3219297E3,7.55528E3,1.2744629E4,0E0,0E0,0E0,0E0,0E0,0E0,0E0,0E0,0E0,0E0,0E0,0E0,0E0,0E0,0E0,0E0,0E0,0E0,0E0,0E0,0E0,0E0,0E0,0E0,0E0,0E0,0E0,0E0,0E0,0E0,0E0,0E0,0E0,0E0,0E0,0E0,0E0,0E0,0E0,0E0,0E0,0E0,0E0,0E0],"parents":[2147483647,0,0,1,1,2,2,3,3,4,4,5,5,6,6,7,7,8,8,9,9,10,10,11,11,12,12,13,13,14,14,15,15,16,16,17,17,18,18,23,23,24,24,25,25,26,26,27,27,28,28,29,29,30,30,31,31,32,32,34,34,35,35,36,36,37,37,38,38,39,39,40,40,42,42,43,43,44,44,45,45,46,46,47,47,48,48,49,49,50,50,51,51,52,52,53,53,54,54],"right_children":[2,4,6,8,10,12,14,16,18,20,22,24,26,28,30,32,34,36,38,-1,-1,-1,-1,40,42,44,46,48,50,52,54,56,58,-1,60,62,64,66,68,70,72,-1,74,76,78,80,82,84,86,88,90,92,94,96,98,-1,-1,-1,-1,-1,-1,-1,-1,-1,-1,-1,-1,-1,-1,-1,-1,-1,-1,-1,-1,-1,-1,-1,-1,-1,-1,-1,-1,-1,-1,-1,-1,-1,-1,-1,-1,-1,-1,-1,-1,-1,-1,-1,-1],"split_conditions":[2E-1,9.71102E5,6.6263E4,6.6263E4,1E-1,2.336E4,4.729E1,5.385E1,3E-1,2E-1,4E-1,6E-1,5E-1,4E-1,4E-1,2.0248E4,1E-1,8.74E-2,8.74E-2,5.869012E0,4.533691E0,1.7369665E0,2.5744765E0,2.0248E4,3.109E1,2E-1,3.117E1,6E-1,5E-1,1.87076E5,6E-1,2E-1,7E-1,-5.529484E-1,1E-1,1E-1,2E-1,1E-1,1E-1,3E-1,3E-1,-5.528926E-1,4E-1,3.117E1,3.117E1,5E-1,6E-1,3.88608E5,8.45E-2,3.88608E5,7E-1,5E-1,3E-1,8E-2,7E-1,-6.525649E-1,-3.9380845E-1,-2.5736555E-1,1.6378942E-1,7.447786E-1,2.5824285E-1,5.208759E-1,6.652122E-2,-4.357194E-1,-1.8808496E-1,1.362844E0,7.433732E-1,3.6173064E-1,8.2502E-2,-6.736638E-1,-6.013368E-1,-5.7864916E-1,-4.9155542E-1,-2.927545E-1,-4.547927E-1,-6.180504E-1,-5.077263E-1,-5.1900476E-1,-3.414941E-1,-3.07069E-1,-4.5055914E-1,1.0084722E-1,-1.7388768E-1,-2.0550835E-1,8.207201E-2,3.9344263E-1,2.8273849E-2,-3.9235994E-1,-2.747302E-1,-5.5227656E-2,-2.4478386E-1,1.1982077E-1,6.400568E-1,6.947922E-1,1.4228472E0,-1.4516377E-1,4.677511E-2,3.8368902E-1,1.07285164E-1],"split_indices":[2,3,3,3,2,3,4,4,0,0,0,0,0,2,2,3,0,5,5,0,0,0,0,3,4,0,4,0,0,3,0,0,0,0,2,2,0,2,2,0,0,0,2,4,4,2,2,3,5,3,2,0,0,5,2,0,0,0,0,0,0,0,0,0,0,0,0,0,0,0,0,0,0,0,0,0,0,0,0,0,0,0,0,0,0,0,0,0,0,0,0,0,0,0,0,0,0,0,0],"split_type":[0,0,0,0,0,0,0,0,0,0,0,0,0,0,0,0,0,0,0,0,0,0,0,0,0,0,0,0,0,0,0,0,0,0,0,0,0,0,0,0,0,0,0,0,0,0,0,0,0,0,0,0,0,0,0,0,0,0,0,0,0,0,0,0,0,0,0,0,0,0,0,0,0,0,0,0,0,0,0,0,0,0,0,0,0,0,0,0,0,0,0,0,0,0,0,0,0,0,0],"sum_hessian":[1.7089E4,3.098E3,1.3991E4,2.94E3,1.58E2,4.907E3,9.084E3,1.092E3,1.848E3,7.5E1,8.3E1,2.082E3,2.825E3,4.211E3,4.873E3,7.81E2,3.11E2,4.96E2,1.352E3,1.7E1,5.8E1,3.1E1,5.2E1,1.148E3,9.34E2,1.294E3,1.531E3,9.26E2,3.285E3,1.088E3,3.785E3,3.14E2,4.67E2,3.2E1,2.79E2,4.03E2,9.3E1,1.123E3,2.29E2,7.7E2,3.78E2,3.07E2,6.27E2,5.08E2,7.86E2,3.84E2,1.147E3,5.04E2,4.22E2,1.512E3,1.773E3,9.37E2,1.51E2,2.079E3,1.706E3,5.9E1,2.55E2,2.92E2,1.75E2,1.38E2,1.41E2,1.92E2,2.11E2,5.8E1,3.5E1,5.75E2,5.48E2,1.27E2,1.02E2,3.77E2,3.93E2,1.89E2,1.89E2,1.35E2,4.92E2,1.29E2,3.79E2,1.86E2,6E2,1.2E2,2.64E2,5.05E2,6.42E2,3.49E2,1.55E2,2.87E2,1.35E2,1.013E3,4.99E2,7.4E2,1.033E3,4.28E2,5.09E2,3.6E1,1.15E2,1.164E3,9.15E2,7.27E2,9.79E2],"tree_param":{"num_deleted":"0","num_feature":"9","num_nodes":"99","size_leaf_vector":"1"}},{"base_weights":[1.7607873E-3,1.1604449E1,-2.56461E0,5.5306816E1,7.261188E0,-6.2279806E0,4.8028758E-1,7.911634E1,3.040639E1,3.917698E0,6.7804016E1,-3.4293607E-1,-7.5507417E0,-3.4420893E0,3.767254E0,-1.2659136E0,8.8078926E1,7.6684556E0,4.4932343E1,-3.4098775E0,1.05458555E1,9.252899E1,4.474565E1,-6.8725104E0,5.0324926E0,-1.0423085E1,-5.219471E0,1.2336258E0,-4.7570505E0,1.0313881E1,1.8357941E0,5.7233543E1,1.2148373E2,-3.8814998E0,1.4916413E1,2.788578E1,6.2130302E1,-9.666249E0,1.5663749E0,1.3473127E1,-6.948947E-1,5.5276356E0,4.1554227E0,2.7480349E1,2.437899E0,-1.0610028E1,-4.29519E0,1.3402921E1,8.158162E-1,-1.1450683E1,-7.2608514E0,-5.255861E-1,-6.350422E0,-2.6162982E0,4.19842E0,-6.2077556E0,-2.9912617E0,7.7499084E0,2.3133375E1,-9.526769E-1,4.172324E0,2.228072E0,3.788231E0,5.1989746E0,8.703559E0,-3.5519418E-1,3.4787484E-2,2.7259946E-1,1.1513174E0,1.0014309E0,1.7768749E0,2.5285857E0,3.8514936E0,1.8178968E-2,-5.345811E-1,7.785681E-1,-1.07218325E-1,1.1064051E0,4.8676872E-1,-2.885091E-1,1.3126461E-1,6.9654626E-1,1.8988202E0,-4.6095625E-1,-5.79167E-1,-4.603564E-2,-3.7998834E-1,4.1514906E-1,1.2115344E0,-1.1352823E-1,3.7791535E-1,-5.9980166E-1,-5.1886857E-1,-4.5255646E-1,-2.4874227E-1,-1.5547954E-1,1.9569515E-1,-4.901013E-1,-2.6047504E-1,-2.3394649E-1,4.2667594E-2,3.436844E-1,1.7463075E-3,-3.573014E-1,-2.3849988E-1,-4.3467324E-2,-2.3083034E-1,8.771021E-1,2.1184991E-1,7.569896E-1,1.4695487E0,3.9026346E-2,-1.13667905E-1,3.1134862E-1,6.913992E-2],"categories":[],"categories_nodes":[],"categories_segments":[],"categories_sizes":[],"default_left":[0,0,0,0,0,0,0,0,0,0,0,0,0,0,0,0,0,0,0,0,0,0,0,0,0,0,0,0,0,0,0,0,0,0,0,0,0,0,0,0,0,0,0,0,0,0,0,0,0,0,0,0,0,0,0,0,0,0,0,0,0,0,0,0,0,0,0,0,0,0,0,0,0,0,0,0,0,0,0,0,0,0,0,0,0,0,0,0,0,0,0,0,0,0,0,0,0,0,0,0,0,0,0,0,0,0,0,0,0,0,0,0,0,0,0],"id":8,"left_children":[1,3,5,7,9,11,13,15,17,19,21,23,25,27,29,-1,31,33,35,37,39,41,43,45,47,49,51,53,55,57,59,61,63,65,67,69,71,73,75,77,79,-1,-1,81,-1,83,85,87,89,91,93,95,97,99,101,103,105,107,109,111,113,-1,-1,-1,-1,-1,-1,-1,-1,-1,-1,-1,-1,-1,-1,-1,-1,-1,-1,-1,-1,-1,-1,-1,-1,-1,-1,-1,-1,-1,-1,-1,-1,-1,-1,-1,-1,-1,-1,-1,-1,-1,-1,-1,-1,-1,-1,-1,-1,-1,-1,-1,-1,-1,-1],"loss_changes":[5.076647E5,5.857341E5,1.557322E5,1.6300431E5,5.685467E5,4.9327844E4,9.831998E4,1.3514262E5,4.5235477E4,1.2942198E5,7.9667E4,4.0890125E4,3.4591812E4,2.1383797E4,5.24433E4,0E0,1.28027375E5,4.662146E3,2.2893406E4,3.9429875E4,4.604308E4,2.6976875E3,4.0634844E3,5.0212695E3,2.254282E4,7.4459375E3,1.5168516E4,8.731459E3,6.9337227E3,3.0881758E4,2.0885664E4,1.3061766E4,3.8971375E4,3.29435E2,2.4841592E3,1.9335469E3,3.1654062E3,5.7733867E3,3.6723426E4,3.569325E4,4.9019097E3,0E0,0E0,1.8886162E3,0E0,1.8291992E2,3.483335E3,1.1616102E4,8.882176E3,8.9809375E2,2.2918398E3,6.390414E3,9.018172E3,2.387144E3,4.8115757E3,1.9745859E3,4.2242715E3,2.7066402E4,7.4082656E3,3.3483066E3,9.987111E3,0E0,0E0,0E0,0E0,0E0,0E0,0E0,0E0,0E0,0E0,0E0,0E0,0E0,0E0,0E0,0E0,0E0,0E0,0E0,0E0,0E0,0E0,0E0,0E0,0E0,0E0,0E0,0E0,0E0,0E0,0E0,0E0,0E0,0E0,0E0,0E0,0E0,0E0,0E0,0E0,0E0,0E0,0E0,0E0,0E0,0E0,0E0,0E0,0E0,0E0,0E0,0E0,0E0,0E0],"parents":[2147483647,0,0,1,1,2,2,3,3,4,4,5,5,6,6,7,7,8,8,9,9,10,10,11,11,12,12,13,13,14,14,16,16,17,17,18,18,19,19,20,20,21,21,22,22,23,23,24,24,25,25,26,26,27,27,28,28,29,29,30,30,31,31,32,32,33,33,34,34,35,35,36,36,37,37,38,38,39,39,40,40,43,43,45,45,46,46,47,47,48,48,49,49,50,50,51,51,52,52,53,53,54,54,55,55,56,56,57,57,58,58,59,59,60,60],"right_children":[2,4,6,8,10,12,14,16,18,20,22,24,26,28,30,-1,32,34,36,38,40,42,44,46,48,50,52,54,56,58,60,62,64,66,68,70,72,74,76,78,80,-1,-1,82,-1,84,86,88,90,92,94,96,98,100,102,104,106,108,110,112,114,-1,-1,-1,-1,-1,-1,-1,-1,-1,-1,-1,-1,-1,-1,-1,-1,-1,-1,-1,-1,-1,-1,-1,-1,-1,-1,-1,-1,-1,-1,-1,-1,-1,-1,-1,-1,-1,-1,-1,-1,-1,-1,-1,-1,-1,-1,-1,-1,-1,-1,-1,-1,-1,-1],"split_conditions":[2E-1,1E-1,1E0,1E-1,9.77E-2,2E-1,4.457E1,1E-1,4E-1,1E0,1E-1,5E-1,6.1681E4,4E-1,4E-1,-1.2659136E0,5.229E1,4.457E1,5.229E1,6.1681E4,8.74E-2,3E-1,2E-1,2E-1,5E-1,5.385E1,6.2048E4,5E-1,6E-1,8.74E-2,5E-1,4.457E1,8.15E1,2E-1,2E-1,4.457E1,7.321E1,2E-1,6.2048E4,4E-1,4E-1,5.5276356E0,4.1554227E0,5E-1,2.437899E0,6E-1,6E-1,5.385E1,5.385E1,7.91E-2,6E-1,7E-1,3.117E1,2E0,8.45E-2,2E0,7E-1,3E-1,5E-1,7E-1,8E-1,2.228072E0,3.788231E0,5.1989746E0,8.703559E0,-3.5519418E-1,3.4787484E-2,2.7259946E-1,1.1513174E0,1.0014309E0,1.7768749E0,2.5285857E0,3.8514936E0,1.8178968E-2,-5.345811E-1,7.785681E-1,-1.07218325E-1,1.1064051E0,4.8676872E-1,-2.885091E-1,1.3126461E-1,6.9654626E-1,1.8988202E0,-4.6095625E-1,-5.79167E-1,-4.603564E-2,-3.7998834E-1,4.1514906E-1,1.2115344E0,-1.1352823E-1,3.7791535E-1,-5.9980166E-1,-5.1886857E-1,-4.5255646E-1,-2.4874227E-1,-1.5547954E-1,1.9569515E-1,-4.901013E-1,-2.6047504E-1,-2.3394649E-1,4.2667594E-2,3.436844E-1,1.7463075E-3,-3.573014E-1,-2.3849988E-1,-4.3467324E-2,-2.3083034E-1,8.771021E-1,2.1184991E-1,7.569896E-1,1.4695487E0,3.9026346E-2,-1.13667905E-1,3.1134862E-1,6.913992E-2],"split_indices":[2,1,7,2,5,1,4,0,0,7,2,0,8,2,2,0,4,4,4,8,5,0,0,0,2,4,8,0,0,5,0,4,4,0,0,4,4,1,8,1,0,0,0,1,0,2,2,4,4,5,0,0,4,7,5,7,2,1,0,2,2,0,0,0,0,0,0,0,0,0,0,0,0,0,0,0,0,0,0,0,0,0,0,0,0,0,0,0,0,0,0,0,0,0,0,0,0,0,0,0,0,0,0,0,0,0,0,0,0,0,0,0,0,0,0],"split_type":[0,0,0,0,0,0,0,0,0,0,0,0,0,0,0,0,0,0,0,0,0,0,0,0,0,0,0,0,0,0,0,0,0,0,0,0,0,0,0,0,0,0,0,0,0,0,0,0,0,0,0,0,0,0,0,0,0,0,0,0,0,0,0,0,0,0,0,0,0,0,0,0,0,0,0,0,0,0,0,0,0,0,0,0,0,0,0,0,0,0,0,0,0,0,0,0,0,0,0,0,0,0,0,0,0,0,0,0,0,0,0,0,0,0,0],"sum_hessian":[1.7047E4,3.087E3,1.396E4,2.78E2,2.809E3,6.336E3,7.624E3,1.41E2,1.37E2,2.663E3,1.46E2,1.163E3,5.173E3,3.476E3,4.148E3,1.1E1,1.3E2,5.4E1,8.3E1,1.265E3,1.398E3,6.9E1,7.7E1,5.25E2,6.38E2,2.316E3,2.857E3,7.63E2,2.713E3,9.44E2,3.204E3,6.9E1,6.1E1,2.1E1,3.3E1,4.3E1,4E1,5.6E2,7.05E2,1.109E3,2.89E2,2E1,4.9E1,1.6E1,6.1E1,2.13E2,3.12E2,2.13E2,4.25E2,1.746E3,5.7E2,5.55E2,2.302E3,3.32E2,4.31E2,1.488E3,1.225E3,7.88E2,1.56E2,1.461E3,1.743E3,4.3E1,2.6E1,4.8E1,1.3E1,1.2E1,9E0,1.6E1,1.7E1,2.3E1,2E1,2.5E1,1.5E1,5.2E1,5.08E2,1.47E2,5.58E2,3.33E2,7.76E2,1.14E2,1.75E2,8E0,8E0,9.2E1,1.21E2,1.55E2,1.57E2,1.46E2,6.7E1,2.92E2,1.33E2,1.151E3,5.95E2,3.18E2,2.52E2,3.51E2,2.04E2,5.7E2,1.732E3,2.08E2,1.24E2,2.62E2,1.69E2,8.98E2,5.9E2,5.32E2,6.93E2,2.07E2,5.81E2,7E1,8.6E1,6.32E2,8.29E2,1.003E3,7.4E2],"tree_param":{"num_deleted":"0","num_feature":"9","num_nodes":"115","size_leaf_vector":"1"}},{"base_weights":[3.1004494E-4,1.07551E1,-2.4221492E0,5.115174E1,6.7059793E0,-7.163548E0,1.5471508E-1,7.397843E1,2.8912777E1,3.7298248E0,6.738702E1,2.7981954E0,-8.153413E0,4.245165E0,-1.8959912E0,-1.2397902E0,8.3432236E1,7.850851E0,3.980075E1,-4.1096745E0,1.213499E1,8.931336E1,4.3074635E1,-4.36936E0,8.661773E0,-1.0501138E1,-6.4103184E0,2.3245006E0,1.458164E1,-4.6432323E0,-3.486531E-1,1.16278145E2,7.2636185E1,1.9942187E0,1.9446808E1,4.5720757E1,2.1159101E1,5.1932626E0,-6.4503884E0,2.3121897E1,9.534743E0,5.5135293E0,4.072493E0,3.2453125E1,2.2940288E0,-1.5615568E-1,-8.17982E0,1.9843344E1,1.5223656E0,-8.732291E0,-1.1268886E1,-8.32877E0,-4.052174E0,-2.5980918E0,5.1316204E0,1.0840134E1,2.0905704E1,-5.300116E0,-9.2948365E-1,-1.292844E0,4.7793465E0,2.4472032E0,8.244493E0,4.1022735E0,2.6945446E0,-4.938592E-1,1.7079124E-1,2.124412E-1,1.1200017E0,1.2875886E0,2.504843E0,4.8700553E-1,1.2126231E0,-2.191882E-1,6.453603E-1,-4.7444817E-1,-9.4247244E-2,4.6298423E-1,1.549869E0,3.58287E-1,9.0078634E-1,7.9132336E-1,1.9031016E0,-4.4665366E-1,1.794619E-1,-5.071705E-1,-2.7704245E-1,1.3076576E0,6.4214176E-1,-1.1497643E-1,2.1581876E-1,-5.2900696E-1,-3.5333332E-1,-5.876901E-1,-5.1472217E-1,-4.7789165E-1,-3.5368994E-1,4.009954E-2,-3.029655E-1,-2.3750065E-1,-2.226026E-2,5.808511E-1,1.3476156E-1,8.106508E-1,4.122932E-1,7.4762803E-1,1.3085591E0,-1.0381047E-1,-3.0025858E-1,9.540779E-2,-1.1526918E-1,-2.206127E-2,-2.6168856E-1,3.6882827E-1,1.065528E-1],"categories":[],"categories_nodes":[],"categories_segments":[],"categories_sizes":[],"default_left":[0,0,0,0,0,0,0,0,0,0,0,0,0,0,0,0,0,0,0,0,0,0,0,0,0,0,0,0,0,0,0,0,0,0,0,0,0,0,0,0,0,0,0,0,0,0,0,0,0,0,0,0,0,0,0,0,0,0,0,0,0,0,0,0,0,0,0,0,0,0,0,0,0,0,0,0,0,0,0,0,0,0,0,0,0,0,0,0,0,0,0,0,0,0,0,0,0,0,0,0,0,0,0,0,0,0,0,0,0,0,0,0,0,0,0],"id":9,"left_children":[1,3,5,7,9,11,13,15,17,19,21,23,25,27,29,-1,31,33,35,37,39,41,43,45,47,49,51,53,55,57,59,61,63,65,67,69,71,73,75,77,79,-1,-1,81,-1,83,85,87,89,91,93,95,97,99,101,103,105,107,109,111,113,-1,-1,-1,-1,-1,-1,-1,-1,-1,-1,-1,-1,-1,-1,-1,-1,-1,-1,-1,-1,-1,-1,-1,-1,-1,-1,-1,-1,-1,-1,-1,-1,-1,-1,-1,-1,-1,-1,-1,-1,-1,-1,-1,-1,-1,-1,-1,-1,-1,-1,-1,-1,-1,-1],"loss_changes":[4.435791E5,5.116338E5,1.6978162E5,1.4253906E5,5.137253E5,4.827161E4,7.55364E4,1.3279962E5,3.3168492E4,1.7888153E5,6.705269E4,1.8656035E4,1.8147562E4,5.966377E4,2.5495344E4,0E0,3.6943562E4,3.4247952E3,9.627016E3,3.0628092E4,3.72045E4,2.3894375E3,4.482422E2,3.2095715E3,1.9448262E4,2.4750625E3,1.1534078E4,3.5070375E4,1.0917961E4,5.266836E3,1.8589049E4,9.0126375E4,1.3040094E4,6.244147E2,6.678379E2,5.0017344E3,6.468535E2,2.096367E4,1.5560871E4,2.7005875E4,2.118796E4,0E0,0E0,9.829863E2,0E0,3.1878718E3,4.878921E2,3.8604492E3,1.6116871E3,1.7042148E3,5.0179688E2,2.1056797E3,1.1199529E4,4.269367E3,2.5503043E4,4.020043E3,5.0628984E3,4.1608203E3,1.2772031E3,1.0878386E4,4.0905596E3,0E0,0E0,0E0,0E0,0E0,0E0,0E0,0E0,0E0,0E0,0E0,0E0,0E0,0E0,0E0,0E0,0E0,0E0,0E0,0E0,0E0,0E0,0E0,0E0,0E0,0E0,0E0,0E0,0E0,0E0,0E0,0E0,0E0,0E0,0E0,0E0,0E0,0E0,0E0,0E0,0E0,0E0,0E0,0E0,0E0,0E0,0E0,0E0,0E0,0E0,0E0,0E0,0E0,0E0],"parents":[2147483647,0,0,1,1,2,2,3,3,4,4,5,5,6,6,7,7,8,8,9,9,10,10,11,11,12,12,13,13,14,14,16,16,17,17,18,18,19,19,20,20,21,21,22,22,23,23,24,24,25,25,26,26,27,27,28,28,29,29,30,30,31,31,32,32,33,33,34,34,35,35,36,36,37,37,38,38,39,39,40,40,43,43,45,45,46,46,47,47,48,48,49,49,50,50,51,51,52,52,53,53,54,54,55,55,56,56,57,57,58,58,59,59,60,60],"right_children":[2,4,6,8,10,12,14,16,18,20,22,24,26,28,30,-1,32,34,36,38,40,42,44,46,48,50,52,54,56,58,60,62,64,66,68,70,72,74,76,78,80,-1,-1,82,-1,84,86,88,90,92,94,96,98,100,102,104,106,108,110,112,114,-1,-1,-1,-1,-1,-1,-1,-1,-1,-1,-1,-1,-1,-1,-1,-1,-1,-1,-1,-1,-1,-1,-1,-1,-1,-1,-1,-1,-1,-1,-1,-1,-1,-1,-1,-1,-1,-1,-1,-1,-1,-1,-1,-1,-1,-1,-1,-1,-1,-1,-1,-1,-1,-1],"split_conditions":[2E-1,1E-1,6.6263E4,1E-1,9.71102E5,1E-1,5E-1,1E-1,4E-1,1.2E2,1E-1,5E-1,2.336E4,9.3747E4,4E-1,-1.2397902E0,2.4E1,3E-1,1.87076E5,3E-1,3E-1,2E-1,3E-1,6E-1,6E-1,4E-1,6E-1,4E-1,7E-1,9.3747E4,9.3747E4,2.0248E4,1.87076E5,2.0248E4,2.336E4,2.336E4,2.72212E5,5E-1,4.8935E4,4E-1,3.88608E5,5.5135293E0,4.072493E0,5E-1,2.2940288E0,2.0248E4,3E-1,4E-1,2.336E4,5E-1,2.0248E4,3E-1,4E-1,2E-1,3E-1,3E-1,1.22738E5,8.0454E4,7E-1,8.61E-2,8E-1,2.4472032E0,8.244493E0,4.1022735E0,2.6945446E0,-4.938592E-1,1.7079124E-1,2.124412E-1,1.1200017E0,1.2875886E0,2.504843E0,4.8700553E-1,1.2126231E0,-2.191882E-1,6.453603E-1,-4.7444817E-1,-9.4247244E-2,4.6298423E-1,1.549869E0,3.58287E-1,9.0078634E-1,7.9132336E-1,1.9031016E0,-4.4665366E-1,1.794619E-1,-5.071705E-1,-2.7704245E-1,1.3076576E0,6.4214176E-1,-1.1497643E-1,2.1581876E-1,-5.2900696E-1,-3.5333332E-1,-5.876901E-1,-5.1472217E-1,-4.7789165E-1,-3.5368994E-1,4.009954E-2,-3.029655E-1,-2.3750065E-1,-2.226026E-2,5.808511E-1,1.3476156E-1,8.106508E-1,4.122932E-1,7.4762803E-1,1.3085591E0,-1.0381047E-1,-3.0025858E-1,9.540779E-2,-1.1526918E-1,-2.206127E-2,-2.6168856E-1,3.6882827E-1,1.065528E-1],"split_indices":[2,1,3,2,3,1,2,0,0,6,2,0,3,6,0,0,6,0,3,1,1,0,0,2,2,1,0,0,0,6,6,3,3,3,3,3,3,0,3,0,3,0,0,1,0,3,0,2,3,0,3,0,1,0,1,2,3,3,2,5,2,0,0,0,0,0,0,0,0,0,0,0,0,0,0,0,0,0,0,0,0,0,0,0,0,0,0,0,0,0,0,0,0,0,0,0,0,0,0,0,0,0,0,0,0,0,0,0,0,0,0,0,0,0,0],"split_type":[0,0,0,0,0,0,0,0,0,0,0,0,0,0,0,0,0,0,0,0,0,0,0,0,0,0,0,0,0,0,0,0,0,0,0,0,0,0,0,0,0,0,0,0,0,0,0,0,0,0,0,0,0,0,0,0,0,0,0,0,0,0,0,0,0,0,0,0,0,0,0,0,0,0,0,0,0,0,0,0,0,0,0,0,0,0,0,0,0,0,0,0,0,0,0,0,0,0,0,0,0,0,0,0,0,0,0,0,0,0,0,0,0,0,0],"sum_hessian":[1.7024E4,3.129E3,1.3895E4,2.84E2,2.845E3,4.892E3,9.003E3,1.39E2,1.45E2,2.713E3,1.32E2,4.42E2,4.45E3,3.006E3,5.997E3,1.2E1,1.27E2,5E1,9.5E1,1.404E3,1.309E3,6.8E1,6.4E1,1.99E2,2.43E2,1.894E3,2.556E3,2.536E3,4.7E2,2.16E3,3.837E3,2.9E1,9.8E1,3.4E1,1.6E1,7.1E1,2.4E1,2.82E2,1.122E3,2.49E2,1.06E3,1.5E1,5.3E1,1.6E1,4.8E1,9.5E1,1.04E2,9.4E1,1.49E2,5.77E2,1.317E3,1.408E3,1.148E3,9.21E2,1.615E3,2.97E2,1.73E2,1.835E3,3.25E2,3.241E3,5.96E2,1.3E1,1.6E1,6.3E1,3.5E1,3E0,3.1E1,3E0,1.3E1,1.4E1,5.7E1,6E0,1.8E1,1.26E2,1.56E2,6.73E2,4.49E2,9.1E1,1.58E2,8.3E2,2.3E2,5E0,1.1E1,2.8E1,6.7E1,5.8E1,4.6E1,4.8E1,4.6E1,6.3E1,8.6E1,2.71E2,3.06E2,8.72E2,4.45E2,7.08E2,7E2,3.36E2,8.12E2,4.6E2,4.61E2,4.4E2,1.175E3,9.5E1,2.02E2,8.3E1,9E1,3.3E2,1.505E3,1.06E2,2.19E2,2.666E3,5.75E2,3E2,2.96E2],"tree_param":{"num_deleted":"0","num_feature":"9","num_nodes":"115","size_leaf_vector":"1"}},{"base_weights":[-1.6506746E-2,-4.2873225E0,4.3044252E0,1.2637879E1,-5.983871E0,2.8003411E0,1.7958233E1,4.387481E0,1.9409548E1,-1.0023826E1,-4.219303E0,-2.1264267E0,4.7013745E0,1.385908E1,2.1538027E1,-9.266305E0,7.870346E0,2.6735802E1,1.4601008E1,-6.103495E0,-1.0479637E1,-5.467559E-1,-5.856861E0,1.397202E0,-3.8979855E0,1.1974976E1,3.0908089E0,4.7992373E0,1.7145483E1,1.9881268E1,1.2127757E0,-1.05366125E1,-4.161688E0,-1.142032E0,1.2122995E1,9.918053E0,4.2279705E1,1.9700138E1,8.200362E0,-7.795976E0,-2.7063181E0,-1.1076215E1,-9.299359E0,-4.56919E0,4.401354E0,-7.14404E0,-4.1207857E0,1.367783E1,2.200474E-1,-3.072225E0,-7.9073243E0,2.145855E1,4.3423696E0,3.9110887E0,-3.6166832E0,-4.6374655E0,7.1852164E0,7.104359E-1,1.0918945E0,9.627065E-1,1.1417964E0,-5.794567E-1,-3.0413812E-1,-5.8905847E-2,-3.1756705E-1,-1.9983025E-1,1.6368715E-2,1.3342324E0,2.5424773E-1,3.2958022E-1,8.0489665E-1,1.7119772E0,2.43508E0,1.3267955E0,8.1103677E-1,1.8737163E-1,5.1065E-1,-4.5912138E-1,-2.640829E-1,-3.2867715E-1,-1.601637E-2,-5.7570755E-1,-4.9538404E-1,-5.019546E-1,-3.9949304E-1,-3.7024447E-1,-8.953113E-2,4.379886E-1,1.1561614E-1,-4.2478105E-1,-2.7512687E-1,-2.6064995E-1,-1.0757025E-1,1.5490383E-2,1.0511249E0,1.6516925E-1,-2.9510338E-2,-2.1589659E-1,-4.4324454E-2,-4.65309E-1,-3.4029758E-1,1.3187793E0,8.060762E-1,4.2802858E-1,9.128388E-2,3.0200288E-1,1.1087108E-1,-2.3241813E-1,-1.2387104E-1,-7.7821404E-1,7.496669E-2,4.4761363E-1,1.7321359E-1],"categories":[],"categories_nodes":[],"categories_segments":[],"categories_sizes":[],"default_left":[0,0,0,0,0,0,0,0,0,0,0,0,0,0,0,0,0,0,0,0,0,0,0,0,0,0,0,0,0,0,0,0,0,0,0,0,0,0,0,0,0,0,0,0,0,0,0,0,0,0,0,0,0,0,0,0,0,0,0,0,0,0,0,0,0,0,0,0,0,0,0,0,0,0,0,0,0,0,0,0,0,0,0,0,0,0,0,0,0,0,0,0,0,0,0,0,0,0,0,0,0,0,0,0,0,0,0,0,0,0,0,0,0],"id":10,"left_children":[1,3,5,7,9,11,13,15,17,19,21,23,25,27,29,31,33,35,37,39,41,43,45,47,49,51,53,55,57,59,-1,61,63,65,67,69,71,73,75,77,79,81,83,85,87,89,91,93,95,97,99,101,103,105,107,109,111,-1,-1,-1,-1,-1,-1,-1,-1,-1,-1,-1,-1,-1,-1,-1,-1,-1,-1,-1,-1,-1,-1,-1,-1,-1,-1,-1,-1,-1,-1,-1,-1,-1,-1,-1,-1,-1,-1,-1,-1,-1,-1,-1,-1,-1,-1,-1,-1,-1,-1,-1,-1,-1,-1,-1,-1],"loss_changes":[3.1321812E5,2.45182E5,1.7321592E5,4.338089E4,5.5269844E4,7.1200586E4,1.198375E4,1.6812041E4,1.4652234E4,4.149625E3,3.2484477E4,1.3220427E4,6.4217625E4,1.1619016E4,1.52125E3,4.230298E2,1.0783586E4,4.3498133E4,8.324258E3,1.4048174E3,1.3833906E3,3.3199152E4,8.31918E3,1.0246435E4,4.6405586E3,7.185689E4,2.4729227E4,2.4199937E3,3.6584922E3,8.285156E1,0E0,1.9670947E2,9.7045135E1,3.8301038E2,1.9439045E4,1.5795669E3,2.8245469E3,2.9945195E3,1.0102964E3,5.266875E2,7.72976E2,6.0084375E2,6.1239453E2,7.235588E3,6.7901865E3,4.7099766E3,3.4153008E3,6.080875E3,1.6208397E3,3.181832E3,3.0642188E2,1.1200141E4,5.8443584E3,1.4420477E4,5.644072E2,1.4985609E3,5.278716E2,0E0,0E0,0E0,0E0,0E0,0E0,0E0,0E0,0E0,0E0,0E0,0E0,0E0,0E0,0E0,0E0,0E0,0E0,0E0,0E0,0E0,0E0,0E0,0E0,0E0,0E0,0E0,0E0,0E0,0E0,0E0,0E0,0E0,0E0,0E0,0E0,0E0,0E0,0E0,0E0,0E0,0E0,0E0,0E0,0E0,0E0,0E0,0E0,0E0,0E0,0E0,0E0,0E0,0E0,0E0,0E0],"parents":[2147483647,0,0,1,1,2,2,3,3,4,4,5,5,6,6,7,7,8,8,9,9,10,10,11,11,12,12,13,13,14,14,15,15,16,16,17,17,18,18,19,19,20,20,21,21,22,22,23,23,24,24,25,25,26,26,27,27,28,28,29,29,31,31,32,32,33,33,34,34,35,35,36,36,37,37,38,38,39,39,40,40,41,41,42,42,43,43,44,44,45,45,46,46,47,47,48,48,49,49,50,50,51,51,52,52,53,53,54,54,55,55,56,56],"right_children":[2,4,6,8,10,12,14,16,18,20,22,24,26,28,30,32,34,36,38,40,42,44,46,48,50,52,54,56,58,60,-1,62,64,66,68,70,72,74,76,78,80,82,84,86,88,90,92,94,96,98,100,102,104,106,108,110,112,-1,-1,-1,-1,-1,-1,-1,-1,-1,-1,-1,-1,-1,-1,-1,-1,-1,-1,-1,-1,-1,-1,-1,-1,-1,-1,-1,-1,-1,-1,-1,-1,-1,-1,-1,-1,-1,-1,-1,-1,-1,-1,-1,-1,-1,-1,-1,-1,-1,-1,-1,-1,-1,-1,-1,-1],"split_conditions":[1.2E2,1E-1,9.71102E5,5E-1,2.336E4,3E-1,5E-1,1E-1,2.4E1,2E-1,4E-1,1.30782E5,2E-1,3E-1,7E-1,1E0,2.336E4,2.0248E4,7.36E-2,2.0248E4,2.0248E4,6E-1,6.6263E4,1E-1,8.45E-2,1.79987E5,8.74E-2,1E-1,8E-1,1E0,1.2127757E0,8.04E-2,6.6456E4,7.43E-2,4.507E4,9E-1,2.4355E4,5.976E1,7E-1,7E-1,4E-1,8E-1,7E-1,3E-1,2E-1,6E-1,7E-1,1E-1,3E-1,7E-1,4E-1,1E-1,2.01E2,6E-1,7E-1,1E-1,2E-1,7.104359E-1,1.0918945E0,9.627065E-1,1.1417964E0,-5.794567E-1,-3.0413812E-1,-5.8905847E-2,-3.1756705E-1,-1.9983025E-1,1.6368715E-2,1.3342324E0,2.5424773E-1,3.2958022E-1,8.0489665E-1,1.7119772E0,2.43508E0,1.3267955E0,8.1103677E-1,1.8737163E-1,5.1065E-1,-4.5912138E-1,-2.640829E-1,-3.2867715E-1,-1.601637E-2,-5.7570755E-1,-4.9538404E-1,-5.019546E-1,-3.9949304E-1,-3.7024447E-1,-8.953113E-2,4.379886E-1,1.1561614E-1,-4.2478105E-1,-2.7512687E-1,-2.6064995E-1,-1.0757025E-1,1.5490383E-2,1.0511249E0,1.6516925E-1,-2.9510338E-2,-2.1589659E-1,-4.4324454E-2,-4.65309E-1,-3.4029758E-1,1.3187793E0,8.060762E-1,4.2802858E-1,9.128388E-2,3.0200288E-1,1.1087108E-1,-2.3241813E-1,-1.2387104E-1,-7.7821404E-1,7.496669E-2,4.4761363E-1,1.7321359E-1],"split_indices":[6,1,3,0,3,0,1,0,6,1,1,3,1,0,0,7,3,3,5,3,3,0,3,1,5,3,5,1,0,1,0,5,3,5,3,0,3,6,0,0,0,0,0,0,1,0,0,0,1,1,1,1,6,1,0,0,0,0,0,0,0,0,0,0,0,0,0,0,0,0,0,0,0,0,0,0,0,0,0,0,0,0,0,0,0,0,0,0,0,0,0,0,0,0,0,0,0,0,0,0,0,0,0,0,0,0,0,0,0,0,0,0,0],"split_type":[0,0,0,0,0,0,0,0,0,0,0,0,0,0,0,0,0,0,0,0,0,0,0,0,0,0,0,0,0,0,0,0,0,0,0,0,0,0,0,0,0,0,0,0,0,0,0,0,0,0,0,0,0,0,0,0,0,0,0,0,0,0,0,0,0,0,0,0,0,0,0,0,0,0,0,0,0,0,0,0,0,0,0,0,0,0,0,0,0,0,0,0,0,0,0,0,0,0,0,0,0,0,0,0,0,0,0,0,0,0,0,0,0],"sum_hessian":[1.6971E4,8.535E3,8.436E3,7.77E2,7.758E3,7.6E3,8.36E2,3.51E2,4.26E2,2.357E3,5.401E3,2.116E3,5.484E3,3.92E2,4.44E2,7.1E1,2.8E2,1.67E2,2.59E2,2.47E2,2.11E3,1.666E3,3.735E3,7.08E2,1.408E3,9.93E2,4.491E3,1.05E2,2.87E2,2.81E2,1.63E2,5.6E1,1.5E1,9E1,1.9E2,8.1E1,8.6E1,1.43E2,1.16E2,1.64E2,8.3E1,1.396E3,7.14E2,9.19E2,7.47E2,2.143E3,1.592E3,6.1E1,6.47E2,1.169E3,2.39E2,4.42E2,5.51E2,4.002E3,4.89E2,2.1E1,8.4E1,1.79E2,1.08E2,2.38E2,4.3E1,4.4E1,1.2E1,7E0,8E0,3E1,6E1,6.1E1,1.29E2,5.4E1,2.7E1,4.1E1,4.5E1,4.6E1,9.7E1,3.7E1,7.9E1,1.04E2,6E1,3.1E1,5.2E1,1.009E3,3.87E2,4.52E2,2.62E2,4.54E2,4.65E2,2.41E2,5.06E2,1.173E3,9.7E2,1.023E3,5.69E2,2.2E1,3.9E1,1.34E2,5.13E2,7.44E2,4.25E2,1.02E2,1.37E2,2.28E2,2.14E2,2.05E2,3.46E2,1.772E3,2.23E3,2.55E2,2.34E2,7E0,1.4E1,5.6E1,2.8E1],"tree_param":{"num_deleted":"0","num_feature":"9","num_nodes":"113","size_leaf_vector":"1"}},{"base_weights":[3.5461206E-2,1.5863609E1,-1.5325786E0,7.4808174E1,9.629501E0,-4.98737E0,1.9715866E0,-1.151118E0,7.990052E1,5.9542E0,8.287826E1,4.707971E0,-5.9831734E0,8.6045475E0,-9.468377E-1,9.009998E1,5.2404358E1,-2.9340703E0,1.6026567E1,5.1295094E0,3.8299007E0,2.1744837E1,5.1384777E-1,-9.506838E0,-4.4692645E0,6.4087067E0,2.6936136E1,2.3411057E0,-2.3318603E0,2.5717978E0,9.7399414E1,4.4630062E1,3.7111795E0,6.562284E0,-5.4440346E0,3.0630844E1,1.237263E1,7.3880496E0,3.4304268E1,-5.035009E0,5.136279E0,-5.9677973E0,-9.91018E0,-6.0282393E0,-1.7224077E0,2.195778E0,1.1584945E1,3.841383E1,2.0574339E1,5.8074045E0,3.5704535E-1,-3.295839E0,3.4294264E0,7.745237E0,4.0677395E0,1.0490127E0,2.317657E0,4.514744E-3,8.5388273E-1,-4.3042347E-1,-5.4919254E-2,6.492246E-1,1.889177E0,4.4462046E-1,1.197821E0,-3.5024074E-1,5.9756655E-1,1.0126245E0,1.982701E0,-1.5209438E-1,-4.2560235E-1,6.489598E-1,5.204866E-2,-4.0495038E-1,-1.8511981E-1,-5.216792E-1,-4.4445953E-1,-3.6016637E-1,-2.2111002E-1,1.6973351E-1,-1.939298E-1,-1.2477893E-1,2.1933293E-1,9.438552E-1,3.7132412E-1,1.5014291E0,2.2237487E0,7.41528E-1,1.3398432E0,1.5669039E-1,5.4149216E-1,-2.6120057E-2,9.424598E-2,-2.6647124E-1,-8.229971E-2,4.0618053E-1,-9.757034E-3],"categories":[],"categories_nodes":[],"categories_segments":[],"categories_sizes":[],"default_left":[0,0,0,0,0,0,0,0,0,0,0,0,0,0,0,0,0,0,0,0,0,0,0,0,0,0,0,0,0,0,0,0,0,0,0,0,0,0,0,0,0,0,0,0,0,0,0,0,0,0,0,0,0,0,0,0,0,0,0,0,0,0,0,0,0,0,0,0,0,0,0,0,0,0,0,0,0,0,0,0,0,0,0,0,0,0,0,0,0,0,0,0,0,0,0,0,0],"id":11,"left_children":[1,3,5,7,9,11,13,-1,15,17,19,21,23,25,27,29,31,33,35,-1,-1,37,39,41,43,45,47,49,51,-1,53,55,-1,57,59,61,63,65,67,69,71,73,75,77,79,81,83,85,87,89,91,93,95,-1,-1,-1,-1,-1,-1,-1,-1,-1,-1,-1,-1,-1,-1,-1,-1,-1,-1,-1,-1,-1,-1,-1,-1,-1,-1,-1,-1,-1,-1,-1,-1,-1,-1,-1,-1,-1,-1,-1,-1,-1,-1,-1,-1],"loss_changes":[4.20734E5,5.607689E5,1.8673525E5,7.457481E4,3.7182572E5,7.501586E4,1.4825014E5,0E0,3.4260438E4,1.180422E5,3.123125E2,5.1722047E4,3.7533766E4,9.401994E4,2.4227527E4,2.3212625E4,3.4725625E3,1.6744418E4,3.2599406E4,0E0,0E0,2.5531328E4,1.4953701E4,2.9613281E3,2.1096984E4,4.5573258E4,1.746436E4,1.0843504E4,2.0799016E4,0E0,6.3977875E4,3.3151172E2,0E0,1.0002598E4,7.6226387E3,1.5034328E4,1.9782781E4,4.549868E3,4.9101016E3,1.8105996E3,1.0200377E4,1.027356E3,9.2153125E2,5.901617E3,1.9718787E4,1.1871994E4,2.8303875E4,3.1370078E3,5.4283438E3,7.6737188E3,1.3500428E3,1.0751035E4,9.138311E3,0E0,0E0,0E0,0E0,0E0,0E0,0E0,0E0,0E0,0E0,0E0,0E0,0E0,0E0,0E0,0E0,0E0,0E0,0E0,0E0,0E0,0E0,0E0,0E0,0E0,0E0,0E0,0E0,0E0,0E0,0E0,0E0,0E0,0E0,0E0,0E0,0E0,0E0,0E0,0E0,0E0,0E0,0E0,0E0],"parents":[2147483647,0,0,1,1,2,2,3,3,4,4,5,5,6,6,8,8,9,9,10,10,11,11,12,12,13,13,14,14,15,15,16,16,17,17,18,18,21,21,22,22,23,23,24,24,25,25,26,26,27,27,28,28,30,30,31,31,33,33,34,34,35,35,36,36,37,37,38,38,39,39,40,40,41,41,42,42,43,43,44,44,45,45,46,46,47,47,48,48,49,49,50,50,51,51,52,52],"right_children":[2,4,6,8,10,12,14,-1,16,18,20,22,24,26,28,30,32,34,36,-1,-1,38,40,42,44,46,48,50,52,-1,54,56,-1,58,60,62,64,66,68,70,72,74,76,78,80,82,84,86,88,90,92,94,96,-1,-1,-1,-1,-1,-1,-1,-1,-1,-1,-1,-1,-1,-1,-1,-1,-1,-1,-1,-1,-1,-1,-1,-1,-1,-1,-1,-1,-1,-1,-1,-1,-1,-1,-1,-1,-1,-1,-1,-1,-1,-1,-1,-1],"split_conditions":[1E-1,1E-1,1.2E2,1E-1,9.71102E5,1E-1,4E-1,-1.151118E0,1.79987E5,1.2E2,2E-1,3E-1,2.336E4,9.71102E5,1.30782E5,2.336E4,9.71102E5,3E-1,3E-1,5.1295094E0,3.8299007E0,5E-1,5E-1,2E-1,7E-1,6E-1,2E-1,4E-1,9.71102E5,2.5717978E0,4.507E4,2E-1,3.7111795E0,4.8935E4,4.8935E4,3E-1,3.88608E5,2.0248E4,2.336E4,8E-1,6E-1,6E-1,2.0248E4,6.6263E4,4E-1,2E-1,4E-1,5E-1,6E-1,7E-1,7E-1,5E-1,7E-1,7.745237E0,4.0677395E0,1.0490127E0,2.317657E0,4.514744E-3,8.5388273E-1,-4.3042347E-1,-5.4919254E-2,6.492246E-1,1.889177E0,4.4462046E-1,1.197821E0,-3.5024074E-1,5.9756655E-1,1.0126245E0,1.982701E0,-1.5209438E-1,-4.2560235E-1,6.489598E-1,5.204866E-2,-4.0495038E-1,-1.8511981E-1,-5.216792E-1,-4.4445953E-1,-3.6016637E-1,-2.2111002E-1,1.6973351E-1,-1.939298E-1,-1.2477893E-1,2.1933293E-1,9.438552E-1,3.7132412E-1,1.5014291E0,2.2237487E0,7.41528E-1,1.3398432E0,1.5669039E-1,5.4149216E-1,-2.6120057E-2,9.424598E-2,-2.6647124E-1,-8.229971E-2,4.0618053E-1,-9.757034E-3],"split_indices":[2,1,6,0,3,1,2,0,3,6,0,2,3,3,3,3,3,1,1,0,0,0,0,1,0,0,2,1,3,0,3,0,0,3,3,0,3,3,3,2,2,0,3,3,1,0,1,0,0,0,0,0,2,0,0,0,0,0,0,0,0,0,0,0,0,0,0,0,0,0,0,0,0,0,0,0,0,0,0,0,0,0,0,0,0,0,0,0,0,0,0,0,0,0,0,0,0],"split_type":[0,0,0,0,0,0,0,0,0,0,0,0,0,0,0,0,0,0,0,0,0,0,0,0,0,0,0,0,0,0,0,0,0,0,0,0,0,0,0,0,0,0,0,0,0,0,0,0,0,0,0,0,0,0,0,0,0,0,0,0,0,0,0,0,0,0,0,0,0,0,0,0,0,0,0,0,0,0,0,0,0,0,0,0,0,0,0,0,0,0,0,0,0,0,0,0,0],"sum_hessian":[1.695E4,1.527E3,1.5423E4,1.45E2,1.382E3,7.766E3,7.657E3,7E0,1.38E2,1.317E3,6.5E1,7.23E2,7.043E3,2.339E3,5.318E3,9.9E1,3.9E1,7E2,6.17E2,1.2E1,5.3E1,1.42E2,5.81E2,2.115E3,4.928E3,2.09E3,2.49E2,1.576E3,3.742E3,1.7E1,8.2E1,3.1E1,8E0,1.46E2,5.54E2,1.22E2,4.95E2,6.7E1,7.5E1,2.64E2,3.17E2,2.18E2,1.897E3,3.143E3,1.785E3,1.153E3,9.37E2,8.7E1,1.62E2,5.73E2,1.003E3,3.206E3,5.36E2,1.6E1,6.6E1,3E0,2.8E1,9.1E1,5.5E1,3.2E2,2.34E2,3.6E1,8.6E1,3.82E2,1.13E2,1.6E1,5.1E1,2.2E1,5.3E1,1.69E2,9.5E1,1.08E2,2.09E2,1.11E2,1.07E2,1.248E3,6.49E2,1.813E3,1.33E3,5.29E2,1.256E3,3.67E2,7.86E2,3.39E2,5.98E2,3.9E1,4.8E1,8.6E1,7.6E1,3.75E2,1.98E2,6.37E2,3.66E2,1.435E3,1.771E3,2.33E2,3.03E2],"tree_param":{"num_deleted":"0","num_feature":"9","num_nodes":"97","size_leaf_vector":"1"}},{"base_weights":[2.2979451E-2,9.975409E0,-2.210526E0,4.6205902E1,6.418895E0,-6.2176676E0,-2.5173616E-2,6.650736E1,2.5574394E1,3.4575763E0,5.744151E1,-1.0881263E0,-7.3809285E0,2.9778426E0,-2.4350336E0,-1.1050233E0,7.3493355E1,9.313212E0,3.9145477E1,-5.8992662E0,8.875268E0,7.888909E1,3.76275E1,-4.52049E0,4.7787337E0,-9.301529E0,-5.9180284E0,1.9684279E0,1.5019346E1,-3.7199826E0,-1.8803611E-1,8.4068985E1,4.666128E1,-1.7575376E0,1.5836519E1,4.460569E1,1.9073374E1,4.2909007E0,-7.052939E0,3.5118265E0,1.3584365E1,4.5692153E0,3.4883325E0,2.5735228E1,2.026241E0,-7.9811816E0,-1.9006389E0,1.6012623E1,2.0251713E0,-9.941426E0,-8.493534E0,-7.0601683E0,-3.8236117E0,-8.2094836E-1,5.346496E0,2.5350155E1,1.14367895E1,-2.2058063E0,-4.6643453E0,-5.910417E-1,4.9251847E0,2.4811034E0,4.5888696E0,2.0351439E0,3.4042509E0,4.077962E-1,-2.0170967E-1,-6.982131E-2,8.868641E-1,2.3926492E0,1.0624087E0,4.5241967E-1,1.0237573E0,-1.840289E-1,5.789899E-1,-5.1331836E-1,-2.2553395E-1,7.9479866E-2,6.387315E-1,1.2259473E0,4.406247E-1,3.8715348E-1,1.580396E0,-4.572714E-1,-2.886838E-1,1.4755893E-1,-2.2495213E-1,1.2198476E0,3.4444967E-1,2.4635828E-1,-8.614914E-2,-5.1646596E-1,-4.569148E-1,-3.4299234E-1,-4.6604863E-1,-3.2140663E-1,-4.5483097E-1,-2.6352113E-2,-2.7247563E-1,-1.945458E-1,3.265279E-2,5.449816E-1,1.17277145E-1,8.1293595E-1,1.5292267E0,1.9835508E-1,7.386677E-1,-6.613626E-2,-2.8101382E-1,-3.169628E-1,-1.8410926E-1,4.1735616E-2,-1.715695E-1,3.560425E-1,8.4093116E-2],"categories":[],"categories_nodes":[],"categories_segments":[],"categories_sizes":[],"default_left":[0,0,0,0,0,0,0,0,0,0,0,0,0,0,0,0,0,0,0,0,0,0,0,0,0,0,0,0,0,0,0,0,0,0,0,0,0,0,0,0,0,0,0,0,0,0,0,0,0,0,0,0,0,0,0,0,0,0,0,0,0,0,0,0,0,0,0,0,0,0,0,0,0,0,0,0,0,0,0,0,0,0,0,0,0,0,0,0,0,0,0,0,0,0,0,0,0,0,0,0,0,0,0,0,0,0,0,0,0,0,0,0,0,0,0],"id":12,"left_children":[1,3,5,7,9,11,13,15,17,19,21,23,25,27,29,-1,31,33,35,37,39,41,43,45,47,49,51,53,55,57,59,61,63,65,67,69,71,73,75,77,79,-1,-1,81,-1,83,85,87,89,91,93,95,97,99,101,103,105,107,109,111,113,-1,-1,-1,-1,-1,-1,-1,-1,-1,-1,-1,-1,-1,-1,-1,-1,-1,-1,-1,-1,-1,-1,-1,-1,-1,-1,-1,-1,-1,-1,-1,-1,-1,-1,-1,-1,-1,-1,-1,-1,-1,-1,-1,-1,-1,-1,-1,-1,-1,-1,-1,-1,-1,-1],"loss_changes":[3.7875644E5,4.0211525E5,1.2186247E5,1.1515825E5,4.296644E5,2.9295875E4,6.518231E4,8.8286125E4,3.0530883E4,1.3641514E5,6.332578E4,1.8326316E4,1.1191969E4,4.8711473E4,1.4427025E4,0E0,3.2966812E4,4.7219966E3,7.478672E3,1.1633551E4,4.299017E4,2.0594688E3,1.8169062E3,5.189E3,1.0361131E4,8.095156E2,5.4150625E3,3.4877812E4,1.1183398E4,4.535461E3,3.751245E3,1.9874625E4,2.2071484E3,5.971411E2,1.3677539E3,3.458289E3,6.768164E1,5.9110527E3,7.199922E3,1.4188267E4,4.710972E4,0E0,0E0,1.7628438E3,0E0,5.8200684E2,4.1483667E3,4.880635E3,2.95619E3,2.0436719E2,9.7827734E2,1.8348672E3,4.3118438E3,9.179536E3,2.7871152E4,3.2621875E3,5.7235547E3,3.6802212E3,3.1959844E3,6.8346025E3,9.3514966E2,0E0,0E0,0E0,0E0,0E0,0E0,0E0,0E0,0E0,0E0,0E0,0E0,0E0,0E0,0E0,0E0,0E0,0E0,0E0,0E0,0E0,0E0,0E0,0E0,0E0,0E0,0E0,0E0,0E0,0E0,0E0,0E0,0E0,0E0,0E0,0E0,0E0,0E0,0E0,0E0,0E0,0E0,0E0,0E0,0E0,0E0,0E0,0E0,0E0,0E0,0E0,0E0,0E0,0E0],"parents":[2147483647,0,0,1,1,2,2,3,3,4,4,5,5,6,6,7,7,8,8,9,9,10,10,11,11,12,12,13,13,14,14,16,16,17,17,18,18,19,19,20,20,21,21,22,22,23,23,24,24,25,25,26,26,27,27,28,28,29,29,30,30,31,31,32,32,33,33,34,34,35,35,36,36,37,37,38,38,39,39,40,40,43,43,45,45,46,46,47,47,48,48,49,49,50,50,51,51,52,52,53,53,54,54,55,55,56,56,57,57,58,58,59,59,60,60],"right_children":[2,4,6,8,10,12,14,16,18,20,22,24,26,28,30,-1,32,34,36,38,40,42,44,46,48,50,52,54,56,58,60,62,64,66,68,70,72,74,76,78,80,-1,-1,82,-1,84,86,88,90,92,94,96,98,100,102,104,106,108,110,112,114,-1,-1,-1,-1,-1,-1,-1,-1,-1,-1,-1,-1,-1,-1,-1,-1,-1,-1,-1,-1,-1,-1,-1,-1,-1,-1,-1,-1,-1,-1,-1,-1,-1,-1,-1,-1,-1,-1,-1,-1,-1,-1,-1,-1,-1,-1,-1,-1,-1,-1,-1,-1,-1,-1],"split_conditions":[2E-1,1E-1,6.6263E4,1E-1,9.71102E5,2E-1,6E-1,1E-1,5E-1,6.6263E4,1E-1,7E-1,2.336E4,9.71102E5,7E-1,-1.1050233E0,1.79987E5,2E-1,1.87076E5,2E-1,5E-1,4E-1,2E-1,3E-1,4E-1,6E-1,7E-1,6E-1,3E-1,6.103E4,9.71102E5,2.336E4,9.71102E5,7.2E-2,2.0248E4,8.74E-2,2.72212E5,5E-1,2.336E4,3.88608E5,4E-1,4.5692153E0,3.4883325E0,4E-1,2.026241E0,2E-1,5E-1,1E-1,8E-1,2.0248E4,5E-1,6.4958E4,5E-1,2E-1,4E-1,5E-1,4E-1,8.74E-2,6.6194E4,1.87076E5,9E-1,2.4811034E0,4.5888696E0,2.0351439E0,3.4042509E0,4.077962E-1,-2.0170967E-1,-6.982131E-2,8.868641E-1,2.3926492E0,1.0624087E0,4.5241967E-1,1.0237573E0,-1.840289E-1,5.789899E-1,-5.1331836E-1,-2.2553395E-1,7.9479866E-2,6.387315E-1,1.2259473E0,4.406247E-1,3.8715348E-1,1.580396E0,-4.572714E-1,-2.886838E-1,1.4755893E-1,-2.2495213E-1,1.2198476E0,3.4444967E-1,2.4635828E-1,-8.614914E-2,-5.1646596E-1,-4.569148E-1,-3.4299234E-1,-4.6604863E-1,-3.2140663E-1,-4.5483097E-1,-2.6352113E-2,-2.7247563E-1,-1.945458E-1,3.265279E-2,5.449816E-1,1.17277145E-1,8.1293595E-1,1.5292267E0,1.9835508E-1,7.386677E-1,-6.613626E-2,-2.8101382E-1,-3.169628E-1,-1.8410926E-1,4.1735616E-2,-1.715695E-1,3.560425E-1,8.4093116E-2],"split_indices":[2,1,3,2,3,1,2,0,0,3,2,0,3,3,0,0,3,0,3,1,0,0,0,0,2,0,0,0,2,8,3,3,3,5,3,5,3,0,3,3,1,0,0,1,0,0,2,1,2,3,1,8,1,0,1,0,0,5,8,3,2,0,0,0,0,0,0,0,0,0,0,0,0,0,0,0,0,0,0,0,0,0,0,0,0,0,0,0,0,0,0,0,0,0,0,0,0,0,0,0,0,0,0,0,0,0,0,0,0,0,0,0,0,0,0],"split_type":[0,0,0,0,0,0,0,0,0,0,0,0,0,0,0,0,0,0,0,0,0,0,0,0,0,0,0,0,0,0,0,0,0,0,0,0,0,0,0,0,0,0,0,0,0,0,0,0,0,0,0,0,0,0,0,0,0,0,0,0,0,0,0,0,0,0,0,0,0,0,0,0,0,0,0,0,0,0,0,0,0,0,0,0,0,0,0,0,0,0,0,0,0,0,0,0,0,0,0,0,0,0,0,0,0,0,0,0,0,0,0,0,0,0,0],"sum_hessian":[1.7037E4,3.122E3,1.3915E4,2.78E2,2.844E3,4.91E3,9.005E3,1.39E2,1.39E2,2.689E3,1.55E2,9.08E2,4.002E3,4.009E3,4.996E3,1E1,1.29E2,6.4E1,7.5E1,9.86E2,1.703E3,7.3E1,8.2E1,5.73E2,3.35E2,1.728E3,2.274E3,3.7E3,3.09E2,3.178E3,1.818E3,9.1E1,3.8E1,2.4E1,4E1,5.8E1,1.7E1,1E2,8.86E2,7.97E2,9.06E2,2.7E1,4.6E1,1.8E1,6.4E1,2.46E2,3.27E2,6.5E1,2.7E2,9.58E2,7.7E2,1.47E3,8.04E2,2.027E3,1.673E3,7.8E1,2.31E2,1.222E3,1.956E3,1.686E3,1.32E2,1.8E1,7.3E1,3.2E1,6E0,4E0,2E1,4E0,3.6E1,5E1,8E0,3E0,1.4E1,4.8E1,5.2E1,3.9E2,4.96E2,6.61E2,1.36E2,2.74E2,6.32E2,5E0,1.3E1,1.59E2,8.7E1,1.14E2,2.13E2,3.3E1,3.2E1,1.52E2,1.18E2,6.38E2,3.2E2,2.62E2,5.08E2,1.125E3,3.45E2,2.66E2,5.38E2,6.57E2,1.37E3,5.86E2,1.087E3,3E1,4.8E1,7.2E1,1.59E2,9.72E2,2.5E2,7.21E2,1.235E3,1.123E3,5.63E2,7.8E1,5.4E1],"tree_param":{"num_deleted":"0","num_feature":"9","num_nodes":"115","size_leaf_vector":"1"}},{"base_weights":[-3.031947E-2,-3.7778604E0,3.7137148E0,9.708637E0,-5.1340237E0,2.4313097E0,1.5299221E1,2.1988716E0,1.6041468E1,-8.666447E0,-3.602859E0,-1.1633008E0,4.4928594E0,1.2247122E1,1.8824957E1,-8.848708E0,5.207612E0,7.9522758E0,1.9108408E1,-5.4418826E0,-9.040233E0,9.101011E-1,-4.7572317E0,2.0645742E0,-2.7637064E0,1.1195719E1,3.058983E0,8.126329E0,1.7496069E1,1.7984793E1,1.0993679E0,-1.0096892E1,-3.8494167E0,-5.653808E0,8.045184E0,5.090881E0,1.3201947E1,3.603868E1,1.2749831E1,-7.058244E0,-2.4067128E0,-9.567542E0,-7.995162E0,-4.347651E0,5.2135487E0,-6.10044E0,-3.1741848E0,1.424664E1,8.222993E-1,-1.9636768E0,-6.4896336E0,2.087841E1,3.7520251E0,3.8485177E0,-3.3880596E0,6.69839E0,1.0872388E1,1.5001821E1,1.032848E0,1.6198631E1,1.896746E1,-5.358829E-1,-2.9296136E-1,-4.3379948E-2,-3.201761E-1,-5.069978E-1,-1.028468E-1,9.0710413E-1,2.2451511E-1,3.5351977E-2,3.6346027E-1,4.8696104E-1,8.349415E-1,1.5624506E0,2.2950375E0,9.038183E-1,2.1562496E-1,-4.048802E-1,-2.2692595E-1,-1.7854819E-1,1.7098776E-1,-5.012893E-1,-4.3633088E-1,-4.4593436E-1,-3.5984352E-1,-3.2066116E-1,-6.2410485E-2,4.525217E-1,1.800229E-1,-3.7918577E-1,-2.498499E-1,-6.1615046E-2,-2.547657E-1,9.391393E-3,1.0002685E0,2.2703838E-1,-9.196344E-3,-1.7949973E-1,-1.8408114E-2,-4.226986E-1,-2.920141E-1,1.2728928E0,8.1061345E-1,3.7918457E-1,6.835066E-2,2.9509816E-1,1.1015036E-1,-2.0970729E-1,-1.0775504E-1,2.4206484E-2,4.052643E-1,4.7033587E-1,6.7396796E-1,8.5529816E-1,6.8569654E-1,7.446732E-1,1.0147146E0,1.2589614E0,9.0441084E-1],"categories":[],"categories_nodes":[],"categories_segments":[],"categories_sizes":[],"default_left":[0,0,0,0,0,0,0,0,0,0,0,0,0,0,0,0,0,0,0,0,0,0,0,0,0,0,0,0,0,0,0,0,0,0,0,0,0,0,0,0,0,0,0,0,0,0,0,0,0,0,0,0,0,0,0,0,0,0,0,0,0,0,0,0,0,0,0,0,0,0,0,0,0,0,0,0,0,0,0,0,0,0,0,0,0,0,0,0,0,0,0,0,0,0,0,0,0,0,0,0,0,0,0,0,0,0,0,0,0,0,0,0,0,0,0,0,0,0,0],"id":13,"left_children":[1,3,5,7,9,11,13,15,17,19,21,23,25,27,29,31,33,35,37,39,41,43,45,47,49,51,53,55,57,59,-1,61,63,65,67,69,71,73,75,77,79,81,83,85,87,89,91,93,95,97,99,101,103,105,107,109,111,113,-1,115,117,-1,-1,-1,-1,-1,-1,-1,-1,-1,-1,-1,-1,-1,-1,-1,-1,-1,-1,-1,-1,-1,-1,-1,-1,-1,-1,-1,-1,-1,-1,-1,-1,-1,-1,-1,-1,-1,-1,-1,-1,-1,-1,-1,-1,-1,-1,-1,-1,-1,-1,-1,-1,-1,-1,-1,-1,-1,-1],"loss_changes":[2.3956397E5,1.561175E5,1.2685912E5,3.7060023E4,4.1908016E4,5.6999137E4,8.926984E3,1.194575E4,1.0342281E4,2.776E3,2.8193672E4,1.4490915E4,4.694467E4,9.785906E3,6.487344E2,4.416162E2,8.736744E3,1.7053125E3,3.2482156E4,1.1898721E3,1.0802188E3,2.4979652E4,9.143133E3,1.4062416E4,5.5763535E3,6.197822E4,2.0516219E4,9.427656E2,1.2748008E3,2.4739844E2,0E0,9.766846E1,1.23914215E2,9.311727E2,7.958632E3,7.397156E2,3.338252E2,2.4862422E3,9.988996E3,3.8227295E2,6.0237366E2,4.4814844E2,4.592539E2,3.1738486E3,3.7242852E3,3.7756406E3,7.380326E3,6.958879E3,3.1625044E3,4.0076665E3,3.7283105E2,7.5790312E3,4.449254E3,1.2114113E4,4.2826416E2,1.508583E3,2.0562598E2,7.9759766E1,0E0,3.3386328E2,6.2596875E2,0E0,0E0,0E0,0E0,0E0,0E0,0E0,0E0,0E0,0E0,0E0,0E0,0E0,0E0,0E0,0E0,0E0,0E0,0E0,0E0,0E0,0E0,0E0,0E0,0E0,0E0,0E0,0E0,0E0,0E0,0E0,0E0,0E0,0E0,0E0,0E0,0E0,0E0,0E0,0E0,0E0,0E0,0E0,0E0,0E0,0E0,0E0,0E0,0E0,0E0,0E0,0E0,0E0,0E0,0E0,0E0,0E0,0E0],"parents":[2147483647,0,0,1,1,2,2,3,3,4,4,5,5,6,6,7,7,8,8,9,9,10,10,11,11,12,12,13,13,14,14,15,15,16,16,17,17,18,18,19,19,20,20,21,21,22,22,23,23,24,24,25,25,26,26,27,27,28,28,29,29,31,31,32,32,33,33,34,34,35,35,36,36,37,37,38,38,39,39,40,40,41,41,42,42,43,43,44,44,45,45,46,46,47,47,48,48,49,49,50,50,51,51,52,52,53,53,54,54,55,55,56,56,57,57,59,59,60,60],"right_children":[2,4,6,8,10,12,14,16,18,20,22,24,26,28,30,32,34,36,38,40,42,44,46,48,50,52,54,56,58,60,-1,62,64,66,68,70,72,74,76,78,80,82,84,86,88,90,92,94,96,98,100,102,104,106,108,110,112,114,-1,116,118,-1,-1,-1,-1,-1,-1,-1,-1,-1,-1,-1,-1,-1,-1,-1,-1,-1,-1,-1,-1,-1,-1,-1,-1,-1,-1,-1,-1,-1,-1,-1,-1,-1,-1,-1,-1,-1,-1,-1,-1,-1,-1,-1,-1,-1,-1,-1,-1,-1,-1,-1,-1,-1,-1,-1,-1,-1,-1],"split_conditions":[1.2E2,1E-1,9.71102E5,5E-1,2.336E4,4E-1,6E-1,1E-1,2.336E4,2E-1,3E-1,1.30782E5,2E-1,6E-1,9E-1,1E0,2.0248E4,9E-1,4.507E4,2.0248E4,2.0248E4,5E-1,6E-1,1E-1,8.45E-2,1.79987E5,8.74E-2,4E-1,9E-1,8E-1,1.0993679E0,8.66E-2,6.6456E4,3E-1,2.4E1,7.43E-2,1E0,9E-1,7.36E-2,8E-1,9E-1,7E-1,5E-1,3E-1,7.2E-2,4.8935E4,7E-1,1E-1,3E-1,2E-1,1E-1,1E-1,2.01E2,6E-1,8E-1,1E-1,4E-1,2E-1,1.032848E0,7E-1,1E-1,-5.358829E-1,-2.9296136E-1,-4.3379948E-2,-3.201761E-1,-5.069978E-1,-1.028468E-1,9.0710413E-1,2.2451511E-1,3.5351977E-2,3.6346027E-1,4.8696104E-1,8.349415E-1,1.5624506E0,2.2950375E0,9.038183E-1,2.1562496E-1,-4.048802E-1,-2.2692595E-1,-1.7854819E-1,1.7098776E-1,-5.012893E-1,-4.3633088E-1,-4.4593436E-1,-3.5984352E-1,-3.2066116E-1,-6.2410485E-2,4.525217E-1,1.800229E-1,-3.7918577E-1,-2.498499E-1,-6.1615046E-2,-2.547657E-1,9.391393E-3,1.0002685E0,2.2703838E-1,-9.196344E-3,-1.7949973E-1,-1.8408114E-2,-4.226986E-1,-2.920141E-1,1.2728928E0,8.1061345E-1,3.7918457E-1,6.835066E-2,2.9509816E-1,1.1015036E-1,-2.0970729E-1,-1.0775504E-1,2.4206484E-2,4.052643E-1,4.7033587E-1,6.7396796E-1,8.5529816E-1,6.8569654E-1,7.446732E-1,1.0147146E0,1.2589614E0,9.0441084E-1],"split_indices":[6,1,3,0,3,0,1,0,3,1,1,3,1,0,0,7,3,0,3,3,3,0,0,1,5,3,5,0,0,1,0,5,3,0,6,5,0,0,5,0,0,0,0,0,5,3,1,0,1,0,0,1,6,1,0,1,1,1,0,0,0,0,0,0,0,0,0,0,0,0,0,0,0,0,0,0,0,0,0,0,0,0,0,0,0,0,0,0,0,0,0,0,0,0,0,0,0,0,0,0,0,0,0,0,0,0,0,0,0,0,0,0,0,0,0,0,0,0,0],"split_type":[0,0,0,0,0,0,0,0,0,0,0,0,0,0,0,0,0,0,0,0,0,0,0,0,0,0,0,0,0,0,0,0,0,0,0,0,0,0,0,0,0,0,0,0,0,0,0,0,0,0,0,0,0,0,0,0,0,0,0,0,0,0,0,0,0,0,0,0,0,0,0,0,0,0,0,0,0,0,0,0,0,0,0,0,0,0,0,0,0,0,0,0,0,0,0,0,0,0,0,0,0,0,0,0,0,0,0,0,0,0,0,0,0,0,0,0,0,0,0],"sum_hessian":[1.7072E4,8.532E3,8.54E3,7.79E2,7.753E3,7.69E3,8.5E2,3.57E2,4.22E2,2.343E3,5.41E3,2.803E3,4.887E3,4.58E2,3.92E2,7.6E1,2.81E2,1.17E2,3.05E2,2.45E2,2.098E3,1.102E3,4.308E3,9.29E2,1.874E3,8.6E2,4.027E3,2.58E2,2E2,3.15E2,7.7E1,6E1,1.6E1,5.8E1,2.23E2,7.7E1,4E1,8.2E1,2.23E2,1.59E2,8.6E1,1.389E3,7.09E2,4.96E2,6.06E2,2.329E3,1.979E3,8.5E1,8.44E2,1.544E3,3.3E2,3.73E2,4.87E2,3.588E3,4.39E2,1.72E2,8.6E1,1.15E2,8.5E1,1.18E2,1.97E2,5.1E1,9E0,8E0,8E0,2.5E1,3.3E1,5.7E1,1.66E2,2.6E1,5.1E1,2.2E1,1.8E1,5.8E1,2.4E1,1.36E2,8.7E1,1.11E2,4.8E1,7.2E1,1.4E1,8.92E2,4.97E2,3.24E2,3.85E2,2.97E2,1.99E2,1.78E2,4.28E2,9.91E2,1.338E3,9.85E2,9.94E2,2.5E1,6E1,1.79E2,6.65E2,7.64E2,7.8E2,7.9E1,2.51E2,1.86E2,1.87E2,1.86E2,3.01E2,1.595E3,1.993E3,2.64E2,1.75E2,3.2E1,1.4E2,5.8E1,2.8E1,3.9E1,7.6E1,9.3E1,2.5E1,2.1E1,1.76E2],"tree_param":{"num_deleted":"0","num_feature":"9","num_nodes":"119","size_leaf_vector":"1"}},{"base_weights":[3.7065357E-2,7.3052115E0,-2.7149198E0,5.2827744E0,4.4261612E1,-6.2139397E0,-1.1837327E0,3.4183662E1,2.4235313E0,3.697872E0,2.895717E1,-2.0216904E0,-7.1500373E0,-2.6459975E0,1.3811039E0,6.493569E1,1.8447922E1,-3.3855183E0,8.672456E0,2.272118E1,3.381679E1,-5.205938E0,3.4181893E0,-8.814711E0,-6.3162465E0,-3.2746232E0,1.2184209E0,4.804633E0,-6.209903E-1,-9.1587716E-1,7.1027725E1,6.075333E0,2.8730734E1,6.969177E0,-4.5111427E0,4.9870615E0,1.3343111E1,1.2911041E1,2.9493347E1,1.9819345E0,1.3756436E0,-8.101399E0,-2.99E0,7.649505E0,-3.404583E-1,-7.9946833E0,-9.218997E0,-4.845379E0,-7.8421893E0,-2.2918208E0,-4.933547E0,5.1071286E0,-1.0611905E0,3.4728477E0,1.2336474E1,-1.2239472E0,3.016127E0,3.8316097E0,1.9678125E0,-1.2334301E-1,5.9214634E-1,1.1982311E0,1.9394772E0,-1.8175639E-1,6.3470703E-1,-3.3340344E-1,-5.2277505E-2,4.9904713E-1,1.267207E-1,1.1049759E0,4.8965344E-1,2.8273177E-1,8.789169E-1,1.6979437E0,1.1599044E0,-3.299329E-1,-4.4394803E-1,-3.259468E-1,-5.041709E-2,6.4048976E-1,7.616419E-2,4.493439E-2,-2.939107E-1,-4.4185463E-1,-3.2076162E-1,-4.808007E-1,-4.3684044E-1,-2.9485932E-1,-9.957E-2,-4.379576E-1,-3.6479113E-1,-2.0013268E-1,-5.1482674E-2,-1.602525E-1,-2.9124638E-1,6.9875054E-2,3.8678372E-1,-1.780967E-1,-1.2910966E-3,4.4951102E-1,6.4613864E-2,4.5503855E-1,7.644071E-1,-2.9759957E-2,-2.1984994E-1,2.2889917E-1,4.099254E-2],"categories":[],"categories_nodes":[],"categories_segments":[],"categories_sizes":[],"default_left":[0,0,0,0,0,0,0,0,0,0,0,0,0,0,0,0,0,0,0,0,0,0,0,0,0,0,0,0,0,0,0,0,0,0,0,0,0,0,0,0,0,0,0,0,0,0,0,0,0,0,0,0,0,0,0,0,0,0,0,0,0,0,0,0,0,0,0,0,0,0,0,0,0,0,0,0,0,0,0,0,0,0,0,0,0,0,0,0,0,0,0,0,0,0,0,0,0,0,0,0,0,0,0,0,0,0,0],"id":14,"left_children":[1,3,5,7,9,11,13,15,17,-1,19,21,23,25,27,29,31,33,35,37,39,41,43,45,47,49,51,53,55,-1,57,59,61,63,65,67,69,71,73,-1,-1,75,77,79,81,83,85,87,89,91,93,95,97,99,101,103,105,-1,-1,-1,-1,-1,-1,-1,-1,-1,-1,-1,-1,-1,-1,-1,-1,-1,-1,-1,-1,-1,-1,-1,-1,-1,-1,-1,-1,-1,-1,-1,-1,-1,-1,-1,-1,-1,-1,-1,-1,-1,-1,-1,-1,-1,-1,-1,-1,-1,-1],"loss_changes":[3.412711E5,3.5000712E5,6.629895E4,3.671456E5,1.0829656E5,1.4768609E4,3.2295203E4,1.923645E5,1.4686411E5,0E0,4.1409844E3,1.19526E4,4.2179375E3,1.3326121E4,2.1436152E4,6.9770625E4,3.366729E4,2.447302E4,3.3481984E4,4.535465E3,2.1757969E3,2.7668076E3,4.0581304E3,2.661172E2,4.574367E3,7.6792617E3,6.8135425E3,1.1532695E4,4.3327227E3,0E0,1.9349188E4,6.039898E3,6.0219297E3,1.2552251E4,1.4135777E4,1.3337525E4,2.6486125E4,9.843701E2,4.2102344E2,0E0,0E0,1.6108398E2,1.7277266E3,3.7740576E3,9.385266E2,4.0367578E2,4.6164062E1,3.1371816E3,4.4060156E2,6.396214E3,2.6838047E3,2.7584526E3,1.2556658E3,1.1802843E4,1.5131426E3,3.376998E3,9.601521E2,0E0,0E0,0E0,0E0,0E0,0E0,0E0,0E0,0E0,0E0,0E0,0E0,0E0,0E0,0E0,0E0,0E0,0E0,0E0,0E0,0E0,0E0,0E0,0E0,0E0,0E0,0E0,0E0,0E0,0E0,0E0,0E0,0E0,0E0,0E0,0E0,0E0,0E0,0E0,0E0,0E0,0E0,0E0,0E0,0E0,0E0,0E0,0E0,0E0,0E0],"parents":[2147483647,0,0,1,1,2,2,3,3,4,4,5,5,6,6,7,7,8,8,10,10,11,11,12,12,13,13,14,14,15,15,16,16,17,17,18,18,19,19,20,20,21,21,22,22,23,23,24,24,25,25,26,26,27,27,28,28,30,30,31,31,32,32,33,33,34,34,35,35,36,36,37,37,38,38,41,41,42,42,43,43,44,44,45,45,46,46,47,47,48,48,49,49,50,50,51,51,52,52,53,53,54,54,55,55,56,56],"right_children":[2,4,6,8,10,12,14,16,18,-1,20,22,24,26,28,30,32,34,36,38,40,42,44,46,48,50,52,54,56,-1,58,60,62,64,66,68,70,72,74,-1,-1,76,78,80,82,84,86,88,90,92,94,96,98,100,102,104,106,-1,-1,-1,-1,-1,-1,-1,-1,-1,-1,-1,-1,-1,-1,-1,-1,-1,-1,-1,-1,-1,-1,-1,-1,-1,-1,-1,-1,-1,-1,-1,-1,-1,-1,-1,-1,-1,-1,-1,-1,-1,-1,-1,-1,-1,-1,-1,-1,-1,-1],"split_conditions":[3E-1,9.77E-2,5.8E1,1E-1,1E-1,2E-1,7E-1,1E-1,1.2E2,3.697872E0,5E-1,7E-1,6.0483E4,9.3747E4,6E-1,1E-1,5E-1,2E-1,6E-1,5E-1,2E-1,3E-1,7E-1,5E-1,2.4E1,8E-1,6E-1,9.3747E4,9.3747E4,-9.1587716E-1,8.74E-2,2E-1,8.45E-2,4E-1,5.8E1,1E-1,4E-1,2E-1,2E-1,1.9819345E0,1.3756436E0,6E-1,6.0483E4,1E-1,6.4958E4,7E-1,7.43E-2,8E-1,4E-1,3E-1,6.103E4,3E-1,2E-1,3E-1,8.74E-2,8.61E-2,9E-1,3.8316097E0,1.9678125E0,-1.2334301E-1,5.9214634E-1,1.1982311E0,1.9394772E0,-1.8175639E-1,6.3470703E-1,-3.3340344E-1,-5.2277505E-2,4.9904713E-1,1.267207E-1,1.1049759E0,4.8965344E-1,2.8273177E-1,8.789169E-1,1.6979437E0,1.1599044E0,-3.299329E-1,-4.4394803E-1,-3.259468E-1,-5.041709E-2,6.4048976E-1,7.616419E-2,4.493439E-2,-2.939107E-1,-4.4185463E-1,-3.2076162E-1,-4.808007E-1,-4.3684044E-1,-2.9485932E-1,-9.957E-2,-4.379576E-1,-3.6479113E-1,-2.0013268E-1,-5.1482674E-2,-1.602525E-1,-2.9124638E-1,6.9875054E-2,3.8678372E-1,-1.780967E-1,-1.2910966E-3,4.4951102E-1,6.4613864E-2,4.5503855E-1,7.644071E-1,-2.9759957E-2,-2.1984994E-1,2.2889917E-1,4.099254E-2],"split_indices":[2,5,6,1,2,1,0,2,6,0,0,0,8,6,2,0,0,1,0,1,2,0,2,1,6,2,2,6,6,0,5,0,5,0,6,2,1,0,2,0,0,2,8,1,8,0,5,0,0,0,8,0,0,1,5,5,2,0,0,0,0,0,0,0,0,0,0,0,0,0,0,0,0,0,0,0,0,0,0,0,0,0,0,0,0,0,0,0,0,0,0,0,0,0,0,0,0,0,0,0,0,0,0,0,0,0,0],"split_type":[0,0,0,0,0,0,0,0,0,0,0,0,0,0,0,0,0,0,0,0,0,0,0,0,0,0,0,0,0,0,0,0,0,0,0,0,0,0,0,0,0,0,0,0,0,0,0,0,0,0,0,0,0,0,0,0,0,0,0,0,0,0,0,0,0,0,0,0,0,0,0,0,0,0,0,0,0,0,0,0,0,0,0,0,0,0,0,0,0,0,0,0,0,0,0,0,0,0,0,0,0,0,0,0,0,0,0],"sum_hessian":[1.706E4,4.685E3,1.2375E4,4.443E3,2.42E2,3.766E3,8.609E3,3.99E2,4.044E3,8.1E1,1.61E2,6.88E2,3.078E3,5.483E3,3.126E3,1.34E2,2.65E2,2.096E3,1.948E3,7.3E1,8.8E1,4.34E2,2.54E2,1.024E3,2.054E3,4.716E3,7.67E2,1.153E3,1.973E3,9E0,1.25E2,1.21E2,1.44E2,2.05E2,1.891E3,1.09E3,8.58E2,3.1E1,4.2E1,4.3E1,4.5E1,1.87E2,2.47E2,1.19E2,1.35E2,3.45E2,6.79E2,1.048E3,1.006E3,2.963E3,1.753E3,2.83E2,4.84E2,9.81E2,1.72E2,1.693E3,2.8E2,1.05E2,2E1,4.9E1,7.2E1,1E2,4.4E1,7.2E1,1.33E2,1.165E3,7.26E2,3.58E2,7.32E2,2.46E2,6.12E2,1.3E1,1.8E1,2.2E1,2E1,6.7E1,1.2E2,8.8E1,1.59E2,6.4E1,5.5E1,1.11E2,2.4E1,2.22E2,1.23E2,3.62E2,3.17E2,7.65E2,2.83E2,3.7E2,6.36E2,1.257E3,1.706E3,5.98E2,1.155E3,1.18E2,1.65E2,1.41E2,3.43E2,2.77E2,7.04E2,8.4E1,8.8E1,1.414E3,2.79E2,1.63E2,1.17E2],"tree_param":{"num_deleted":"0","num_feature":"9","num_nodes":"107","size_leaf_vector":"1"}},{"base_weights":[4.9841713E-2,-1.1101182E0,1.0386644E1,8.27123E0,-2.0367076E0,6.637483E0,1.4088961E1,4.8119783E0,2.4762396E1,-5.8643966E0,4.2460957E-1,1.1661141E0,4.835053E0,1.0229757E1,1.7285934E1,-7.551697E-1,9.813449E0,1.0672269E0,1.5502182E0,-7.868016E0,-4.355927E0,1.3877409E0,-3.9431221E0,8.843431E0,2.0971024E0,9.127717E0,5.958511E-1,8.022426E-1,9.773241E-1,-1.6963155E0,6.0673386E-1,7.255816E0,1.3914184E1,-6.340712E0,-8.530613E0,-1.4087698E0,-5.631156E0,3.2089913E0,1.7075951E-1,-2.0249767E0,-4.3939085E0,1.0758922E1,6.9681926E0,3.4065964E0,7.9550225E-1,4.0167913E-1,9.589624E0,-1.0949037E-1,-5.929737E-2,5.340773E-2,1.762921E-2,1.5120742E-1,4.080803E-1,8.504902E-1,3.6655235E-1,-3.656249E-1,-2.2312441E-1,-4.4836068E-1,-3.8320515E-1,-2.706681E-1,-8.1520965E-3,-3.8385677E-1,-2.4774511E-1,-5.015158E-3,2.9261038E-1,-1.566392E-1,5.6739777E-2,-1.8630251E-2,-1.8206684E-1,-1.9484113E-1,-2.4521144E-1,6.070746E-1,4.6550828E-1,3.8790494E-1,3.0250433E-1,1.9578259E-1,1.1754276E-1,5.9988942E-2,6.189776E-4,5.251057E-1,4.3660957E-1],"categories":[],"categories_nodes":[],"categories_segments":[],"categories_sizes":[],"default_left":[0,0,0,0,0,0,0,0,0,0,0,0,0,0,0,0,0,0,0,0,0,0,0,0,0,0,0,0,0,0,0,0,0,0,0,0,0,0,0,0,0,0,0,0,0,0,0,0,0,0,0,0,0,0,0,0,0,0,0,0,0,0,0,0,0,0,0,0,0,0,0,0,0,0,0,0,0,0,0,0,0],"id":15,"left_children":[1,3,5,7,9,11,13,15,17,19,21,-1,23,25,27,29,31,-1,-1,33,35,37,39,41,43,45,-1,-1,-1,47,49,51,53,55,57,59,61,63,65,67,69,71,73,75,77,-1,79,-1,-1,-1,-1,-1,-1,-1,-1,-1,-1,-1,-1,-1,-1,-1,-1,-1,-1,-1,-1,-1,-1,-1,-1,-1,-1,-1,-1,-1,-1,-1,-1,-1,-1],"loss_changes":[2.0381023E5,1.3286677E5,2.3711672E4,7.8263555E4,1.3105077E5,2.5569727E4,1.0458328E4,3.1665959E4,4.41575E3,1.6419672E4,3.5623594E4,0E0,8.453955E3,6.219844E2,1.0049844E3,6.9189233E2,6.181457E3,0E0,0E0,2.3109062E3,1.1672867E4,1.5377028E4,1.3140527E3,1.0493262E3,7.813312E2,4.5265625E1,0E0,0E0,0E0,7.774719E1,2.554004E1,1.3973613E3,4.5420664E3,1.2651074E3,5.468047E2,4.6884316E3,2.9629922E3,2.4309002E4,1.3252053E4,7.811957E2,2.949375E2,1.9341992E2,6.9822754E1,1.138667E2,7.34359E1,0E0,3.738867E1,0E0,0E0,0E0,0E0,0E0,0E0,0E0,0E0,0E0,0E0,0E0,0E0,0E0,0E0,0E0,0E0,0E0,0E0,0E0,0E0,0E0,0E0,0E0,0E0,0E0,0E0,0E0,0E0,0E0,0E0,0E0,0E0,0E0,0E0],"parents":[2147483647,0,0,1,1,2,2,3,3,4,4,5,5,6,6,7,7,8,8,9,9,10,10,12,12,13,13,14,14,15,15,16,16,19,19,20,20,21,21,22,22,23,23,24,24,25,25,29,29,30,30,31,31,32,32,33,33,34,34,35,35,36,36,37,37,38,38,39,39,40,40,41,41,42,42,43,43,44,44,46,46],"right_children":[2,4,6,8,10,12,14,16,18,20,22,-1,24,26,28,30,32,-1,-1,34,36,38,40,42,44,46,-1,-1,-1,48,50,52,54,56,58,60,62,64,66,68,70,72,74,76,78,-1,80,-1,-1,-1,-1,-1,-1,-1,-1,-1,-1,-1,-1,-1,-1,-1,-1,-1,-1,-1,-1,-1,-1,-1,-1,-1,-1,-1,-1,-1,-1,-1,-1,-1,-1],"split_conditions":[9.3747E4,1E-1,1.22738E5,7.321E1,6.6263E4,1E-1,5E-1,4.457E1,8.442E1,2.336E4,8.61E-2,1.1661141E0,5E-1,3E-1,9E-1,3.117E1,1E0,1.0672269E0,1.5502182E0,4E-1,4E-1,5E-1,3E-1,3E-1,8E-1,1E-1,5.958511E-1,8.022426E-1,9.773241E-1,7.88E-2,1.11871E5,1.5341E4,1.30782E5,2.0248E4,2.0248E4,3.117E1,3.117E1,4.729E1,7.2E-2,1.11871E5,7E-1,2E-1,4E-1,7E-1,1E0,4.0167913E-1,2E-1,-1.0949037E-1,-5.929737E-2,5.340773E-2,1.762921E-2,1.5120742E-1,4.080803E-1,8.504902E-1,3.6655235E-1,-3.656249E-1,-2.2312441E-1,-4.4836068E-1,-3.8320515E-1,-2.706681E-1,-8.1520965E-3,-3.8385677E-1,-2.4774511E-1,-5.015158E-3,2.9261038E-1,-1.566392E-1,5.6739777E-2,-1.8630251E-2,-1.8206684E-1,-1.9484113E-1,-2.4521144E-1,6.070746E-1,4.6550828E-1,3.8790494E-1,3.0250433E-1,1.9578259E-1,1.1754276E-1,5.9988942E-2,6.189776E-4,5.251057E-1,4.3660957E-1],"split_indices":[6,1,3,4,3,1,1,4,4,3,5,0,1,1,1,4,7,0,0,1,1,1,1,1,1,1,0,0,0,5,3,3,3,3,3,4,4,4,5,3,1,1,1,1,1,0,1,0,0,0,0,0,0,0,0,0,0,0,0,0,0,0,0,0,0,0,0,0,0,0,0,0,0,0,0,0,0,0,0,0,0],"split_type":[0,0,0,0,0,0,0,0,0,0,0,0,0,0,0,0,0,0,0,0,0,0,0,0,0,0,0,0,0,0,0,0,0,0,0,0,0,0,0,0,0,0,0,0,0,0,0,0,0,0,0,0,0,0,0,0,0,0,0,0,0,0,0,0,0,0,0,0,0,0,0,0,0,0,0,0,0,0,0,0,0],"sum_hessian":[1.6996E4,1.5282E4,1.714E3,1.373E3,1.3909E4,8.53E2,8.61E2,1.136E3,2.37E2,5.443E3,8.466E3,8.2E1,7.71E2,3.92E2,4.69E2,5.38E2,5.98E2,1.56E2,8.1E1,2.336E3,3.107E3,6.937E3,1.529E3,3.12E2,4.59E2,2.41E2,1.51E2,3.08E2,1.61E2,3.18E2,2.2E2,3.7E2,2.28E2,7.1E2,1.626E3,9.39E2,2.168E3,2.778E3,4.159E3,2.92E2,1.237E3,1.52E2,1.6E2,2.28E2,2.31E2,7.7E1,1.64E2,1.6E2,1.58E2,7.7E1,1.43E2,6.6E1,3.04E2,1.54E2,7.4E1,4.66E2,2.44E2,1.075E3,5.51E2,2.22E2,7.17E2,5.36E2,1.632E3,1.234E3,1.544E3,9.39E2,3.22E3,1.45E2,1.47E2,6.31E2,6.06E2,7.4E1,7.8E1,8.2E1,7.8E1,1.52E2,7.6E1,1.52E2,7.9E1,7.4E1,9E1],"tree_param":{"num_deleted":"0","num_feature":"9","num_nodes":"81","size_leaf_vector":"1"}},{"base_weights":[7.851458E-2,1.3910102E1,-1.2817694E0,6.1607765E1,8.727524E0,-3.9811156E0,1.4000105E0,3.3584156E1,8.8809944E1,5.5476394E0,3.4859219E0,3.4215498E0,-4.7216587E0,7.2558217E0,-1.1883332E0,1.2414786E0,2.505007E0,7.471715E1,6.6248064E0,-2.1199255E0,1.4366303E1,1.4706132E1,-1.3271667E0,-7.4368334E0,-3.5395057E0,5.553264E0,2.1674913E1,-3.8353457E0,6.300466E-1,2.205508E0,7.734982E1,4.8228507E0,-5.0448294E0,2.7686504E1,1.0931105E1,2.8020093E0,2.125914E1,1.3197341E0,-4.9256735E0,-6.088819E0,-8.013308E0,-1.6255124E0,-4.8217053E0,7.4266875E-1,7.8925815E0,3.1894894E1,1.6617777E1,-2.6326756E0,-5.3887663E0,2.8163738E0,-9.8534596E-1,4.200541E0,3.0504258E0,-2.4146247E-1,4.3386173E-1,-3.5777625E-1,-7.763493E-2,8.06108E-1,1.681328E0,3.847811E-1,1.0578474E0,4.330054E-1,-2.4155308E-2,1.5886399E0,7.7931243E-1,-1.0385584E-1,2.3419154E-1,-3.042858E-1,-1.4822666E-1,-3.3932266E-1,-2.3799017E-1,-4.4037944E-1,-3.8074502E-1,7.705494E-2,-1.5158495E-1,-3.7551594E-1,-2.1933995E-1,-1.3114719E-1,1.1904647E-1,8.3055323E-1,2.9501396E-1,1.3390107E0,1.7657753E0,1.060234E0,5.7771724E-1,-2.0566697E-1,-6.077936E-2,-3.1023303E-1,-2.3419826E-1,1.07060015E-1,3.049105E-1,2.5548523E-2,-1.246834E-1],"categories":[],"categories_nodes":[],"categories_segments":[],"categories_sizes":[],"default_left":[0,0,0,0,0,0,0,0,0,0,0,0,0,0,0,0,0,0,0,0,0,0,0,0,0,0,0,0,0,0,0,0,0,0,0,0,0,0,0,0,0,0,0,0,0,0,0,0,0,0,0,0,0,0,0,0,0,0,0,0,0,0,0,0,0,0,0,0,0,0,0,0,0,0,0,0,0,0,0,0,0,0,0,0,0,0,0,0,0,0,0,0,0],"id":16,"left_children":[1,3,5,7,9,11,13,15,17,19,-1,21,23,25,27,-1,-1,29,-1,31,33,35,37,39,41,43,45,47,49,-1,51,53,55,57,59,61,63,65,67,69,71,73,75,77,79,81,83,85,87,89,91,-1,-1,-1,-1,-1,-1,-1,-1,-1,-1,-1,-1,-1,-1,-1,-1,-1,-1,-1,-1,-1,-1,-1,-1,-1,-1,-1,-1,-1,-1,-1,-1,-1,-1,-1,-1,-1,-1,-1,-1,-1,-1],"loss_changes":[3.1981447E5,3.756959E5,1.1203714E5,1.10600625E5,2.6609238E5,4.2298773E4,1.1768642E5,9.600336E3,3.6274812E4,8.840675E4,0E0,3.763779E4,2.2480453E4,5.830708E4,2.5921898E4,0E0,0E0,1.3421875E3,0E0,1.4239197E4,2.7517945E4,1.6166055E4,4.721321E3,1.6033125E3,1.1985449E4,2.396411E4,1.2442609E4,4.0828867E3,1.1279739E4,0E0,6.4365625E2,7.780107E3,3.622705E3,7.9757812E3,1.5883664E4,1.4475233E3,7.496922E3,3.2779465E3,4.5971045E2,5.620117E2,4.031797E2,8.741156E3,3.388414E3,3.8548433E3,2.4792992E4,4.888672E2,3.7033203E3,2.5926104E3,5.2067773E2,2.993796E3,4.147249E3,0E0,0E0,0E0,0E0,0E0,0E0,0E0,0E0,0E0,0E0,0E0,0E0,0E0,0E0,0E0,0E0,0E0,0E0,0E0,0E0,0E0,0E0,0E0,0E0,0E0,0E0,0E0,0E0,0E0,0E0,0E0,0E0,0E0,0E0,0E0,0E0,0E0,0E0,0E0,0E0,0E0,0E0],"parents":[2147483647,0,0,1,1,2,2,3,3,4,4,5,5,6,6,7,7,8,8,9,9,11,11,12,12,13,13,14,14,17,17,19,19,20,20,21,21,22,22,23,23,24,24,25,25,26,26,27,27,28,28,30,30,31,31,32,32,33,33,34,34,35,35,36,36,37,37,38,38,39,39,40,40,41,41,42,42,43,43,44,44,45,45,46,46,47,47,48,48,49,49,50,50],"right_children":[2,4,6,8,10,12,14,16,18,20,-1,22,24,26,28,-1,-1,30,-1,32,34,36,38,40,42,44,46,48,50,-1,52,54,56,58,60,62,64,66,68,70,72,74,76,78,80,82,84,86,88,90,92,-1,-1,-1,-1,-1,-1,-1,-1,-1,-1,-1,-1,-1,-1,-1,-1,-1,-1,-1,-1,-1,-1,-1,-1,-1,-1,-1,-1,-1,-1,-1,-1,-1,-1,-1,-1,-1,-1,-1,-1,-1,-1],"split_conditions":[1E-1,1E-1,1.2E2,5.089E1,9.71102E5,1E-1,4E-1,4.457E1,8.15E1,1.2E2,3.4859219E0,4E-1,2.336E4,9.71102E5,3.339E1,1.2414786E0,2.505007E0,1.5341E4,6.6248064E0,4E-1,3E-1,4.66E1,8E-1,4E-1,5E-1,3.228E1,2E-1,8E-1,7E-1,2.205508E0,1.30782E5,2.336E4,4.8935E4,3.228E1,3.88608E5,2E-1,2E-1,4.729E1,5.229E1,2.0248E4,3.109E1,4E-1,3.117E1,2.72212E5,2E-1,5E-1,3E-1,3.88608E5,5E-1,1.87076E5,1.30782E5,4.200541E0,3.0504258E0,-2.4146247E-1,4.3386173E-1,-3.5777625E-1,-7.763493E-2,8.06108E-1,1.681328E0,3.847811E-1,1.0578474E0,4.330054E-1,-2.4155308E-2,1.5886399E0,7.7931243E-1,-1.0385584E-1,2.3419154E-1,-3.042858E-1,-1.4822666E-1,-3.3932266E-1,-2.3799017E-1,-4.4037944E-1,-3.8074502E-1,7.705494E-2,-1.5158495E-1,-3.7551594E-1,-2.1933995E-1,-1.3114719E-1,1.1904647E-1,8.3055323E-1,2.9501396E-1,1.3390107E0,1.7657753E0,1.060234E0,5.7771724E-1,-2.0566697E-1,-6.077936E-2,-3.1023303E-1,-2.3419826E-1,1.07060015E-1,3.049105E-1,2.5548523E-2,-1.246834E-1],"split_indices":[2,1,6,4,3,1,2,4,4,6,0,2,3,3,4,0,0,3,0,1,1,4,2,1,1,4,2,2,2,0,3,3,3,4,3,2,2,4,4,3,4,2,4,3,1,1,2,3,1,3,3,0,0,0,0,0,0,0,0,0,0,0,0,0,0,0,0,0,0,0,0,0,0,0,0,0,0,0,0,0,0,0,0,0,0,0,0,0,0,0,0,0,0],"split_type":[0,0,0,0,0,0,0,0,0,0,0,0,0,0,0,0,0,0,0,0,0,0,0,0,0,0,0,0,0,0,0,0,0,0,0,0,0,0,0,0,0,0,0,0,0,0,0,0,0,0,0,0,0,0,0,0,0,0,0,0,0,0,0,0,0,0,0,0,0,0,0,0,0,0,0,0,0,0,0,0,0,0,0,0,0,0,0,0,0,0,0,0,0],"sum_hessian":[1.6996E4,1.521E3,1.5475E4,1.48E2,1.373E3,7.712E3,7.763E3,7.4E1,7.4E1,1.306E3,6.7E1,7.01E2,7.011E3,2.379E3,5.384E3,5E1,2.4E1,5.8E1,1.6E1,6.99E2,6.07E2,2.07E2,4.94E2,2.125E3,4.886E3,2.129E3,2.5E2,2.192E3,3.192E3,6E0,5.2E1,2.07E2,4.92E2,1.23E2,4.84E2,7.4E1,1.33E2,2.85E2,2.09E2,6.4E2,1.485E3,1.961E3,2.925E3,6.97E2,1.432E3,